<?xml version="1.0"?>
<MethodSetup Method="BDT::Grad_default">
  <GeneralInfo>
    <Info name="TMVA Release" value="4.2.1 [262657]"/>
    <Info name="ROOT Release" value="6.06/02 [394754]"/>
    <Info name="Creator" value="bd1316"/>
    <Info name="Date" value="Tue Aug  9 11:16:16 2016"/>
    <Info name="Host" value="Linux lcgapp-slc6-physical1.cern.ch 2.6.32-573.8.1.el6.x86_64 #1 SMP Wed Nov 11 15:27:45 CET 2015 x86_64 x86_64 x86_64 GNU/Linux"/>
    <Info name="Dir" value="/home/hep/bd1316/Public/Project/Scripts/TMVA/CorrectMC"/>
    <Info name="Training events" value="7896"/>
    <Info name="TrainingTime" value="3.33904891e+01"/>
    <Info name="AnalysisType" value="Classification"/>
  </GeneralInfo>
  <Options>
    <Option name="V" modified="Yes">False</Option>
    <Option name="VerbosityLevel" modified="No">Default</Option>
    <Option name="VarTransform" modified="No">None</Option>
    <Option name="H" modified="Yes">False</Option>
    <Option name="CreateMVAPdfs" modified="No">False</Option>
    <Option name="IgnoreNegWeightsInTraining" modified="No">False</Option>
    <Option name="NTrees" modified="No">800</Option>
    <Option name="MaxDepth" modified="No">3</Option>
    <Option name="MinNodeSize" modified="No">5%</Option>
    <Option name="nCuts" modified="Yes">-1</Option>
    <Option name="BoostType" modified="Yes">Grad</Option>
    <Option name="AdaBoostR2Loss" modified="No">quadratic</Option>
    <Option name="UseBaggedBoost" modified="No">False</Option>
    <Option name="Shrinkage" modified="No">1.000000e+00</Option>
    <Option name="AdaBoostBeta" modified="No">5.000000e-01</Option>
    <Option name="UseRandomisedTrees" modified="No">False</Option>
    <Option name="UseNvars" modified="No">3</Option>
    <Option name="UsePoissonNvars" modified="No">True</Option>
    <Option name="BaggedSampleFraction" modified="No">6.000000e-01</Option>
    <Option name="UseYesNoLeaf" modified="No">True</Option>
    <Option name="NegWeightTreatment" modified="No">ignorenegweightsintraining</Option>
    <Option name="Css" modified="No">1.000000e+00</Option>
    <Option name="Cts_sb" modified="No">1.000000e+00</Option>
    <Option name="Ctb_ss" modified="No">1.000000e+00</Option>
    <Option name="Cbb" modified="No">1.000000e+00</Option>
    <Option name="NodePurityLimit" modified="No">5.000000e-01</Option>
    <Option name="SeparationType" modified="Yes">giniindex</Option>
    <Option name="DoBoostMonitor" modified="No">False</Option>
    <Option name="UseFisherCuts" modified="No">False</Option>
    <Option name="MinLinCorrForFisher" modified="No">8.000000e-01</Option>
    <Option name="UseExclusiveVars" modified="No">False</Option>
    <Option name="DoPreselection" modified="No">False</Option>
    <Option name="SigToBkgFraction" modified="No">1.000000e+00</Option>
    <Option name="PruneMethod" modified="Yes">costcomplexity</Option>
    <Option name="PruneStrength" modified="Yes">-1.000000e+00</Option>
    <Option name="PruningValFraction" modified="No">5.000000e-01</Option>
    <Option name="nEventsMin" modified="No">0</Option>
    <Option name="UseBaggedGrad" modified="No">False</Option>
    <Option name="GradBaggingFraction" modified="No">6.000000e-01</Option>
    <Option name="UseNTrainEvents" modified="No">0</Option>
    <Option name="NNodesMax" modified="No">0</Option>
  </Options>
  <Variables NVar="10">
    <Variable VarIndex="0" Expression="log(gamma_PT)" Label="loggamma_PT" Title="loggamma_PT" Unit="" Internal="loggamma_PT" Type="F" Min="7.59670115e+00" Max="9.91210365e+00"/>
    <Variable VarIndex="1" Expression="log(Kplus_IPCHI2_OWNPV)" Label="logKplus_IPCHI2_OWNPV" Title="logKplus_IPCHI2_OWNPV" Unit="" Internal="logKplus_IPCHI2_OWNPV" Type="F" Min="2.77374840e+00" Max="1.08729534e+01"/>
    <Variable VarIndex="2" Expression="log(acos(B_plus_DIRA_OWNPV))" Label="logacosB_plus_DIRA_OWNPV" Title="logacosB_plus_DIRA_OWNPV" Unit="" Internal="logacosB_plus_DIRA_OWNPV" Type="F" Min="-1.11244354e+01" Max="1.09726572e+00"/>
    <Variable VarIndex="3" Expression="log(B_plus_PT)" Label="logB_plus_PT" Title="logB_plus_PT" Unit="" Internal="logB_plus_PT" Type="F" Min="4.16814470e+00" Max="1.09988537e+01"/>
    <Variable VarIndex="4" Expression="K_1_plus_MM" Label="K_1_plus_MM" Title="K_1_plus_MM" Unit="" Internal="K_1_plus_MM" Type="F" Min="2.38040576e+03" Max="6.70602686e+03"/>
    <Variable VarIndex="5" Expression="log(K_1_plus_IPCHI2_OWNPV)" Label="logK_1_plus_IPCHI2_OWNPV" Title="logK_1_plus_IPCHI2_OWNPV" Unit="" Internal="logK_1_plus_IPCHI2_OWNPV" Type="F" Min="-5.01572895e+00" Max="1.09827709e+01"/>
    <Variable VarIndex="6" Expression="log(pplus_IPCHI2_OWNPV)" Label="logpplus_IPCHI2_OWNPV" Title="logpplus_IPCHI2_OWNPV" Unit="" Internal="logpplus_IPCHI2_OWNPV" Type="F" Min="2.77284861e+00" Max="1.15438108e+01"/>
    <Variable VarIndex="7" Expression="log(p~minus_IPCHI2_OWNPV)" Label="logp~minus_IPCHI2_OWNPV" Title="logp~minus_IPCHI2_OWNPV" Unit="" Internal="logp~minus_IPCHI2_OWNPV" Type="F" Min="2.77260280e+00" Max="1.13584528e+01"/>
    <Variable VarIndex="8" Expression="log(B_plus_IPCHI2_OWNPV)" Label="logB_plus_IPCHI2_OWNPV" Title="logB_plus_IPCHI2_OWNPV" Unit="" Internal="logB_plus_IPCHI2_OWNPV" Type="F" Min="-7.61347723e+00" Max="2.95288324e+00"/>
    <Variable VarIndex="9" Expression="log(K_1_plus_ENDVERTEX_CHI2)" Label="logK_1_plus_ENDVERTEX_CHI2" Title="logK_1_plus_ENDVERTEX_CHI2" Unit="" Internal="logK_1_plus_ENDVERTEX_CHI2" Type="F" Min="-6.08024120e+00" Max="3.29575992e+00"/>
  </Variables>
  <Spectators NSpec="0"/>
  <Classes NClass="2">
    <Class Name="Signal" Index="0"/>
    <Class Name="Background" Index="1"/>
  </Classes>
  <Transformations NTransformations="0"/>
  <MVAPdfs/>
  <Weights NTrees="800" AnalysisType="1">
    <BinaryTree type="DecisionTree" boostWeight="1.0000000000000000e+00" itree="0">
      <Node pos="s" depth="0" NCoef="0" IVar="2" Cut="-5.2872052192687988e+00" cType="1" res="0.0000000000000000e+00" rms="5.0000000000000000e-01" purity="5.0000000000000000e-01" nType="0">
        <Node pos="l" depth="1" NCoef="0" IVar="4" Cut="4.8854941406250000e+03" cType="1" res="2.6640307903289795e-01" rms="4.2311865091323853e-01" purity="7.6640307903289795e-01" nType="0">
          <Node pos="l" depth="2" NCoef="0" IVar="3" Cut="8.8723611831665039e+00" cType="1" res="3.1913897395133972e-01" rms="3.8490298390388489e-01" purity="8.1913900375366211e-01" nType="0">
            <Node pos="l" depth="3" NCoef="0" IVar="-1" Cut="0.0000000000000000e+00" cType="1" res="-2.5242719054222107e-01" rms="4.8380795121192932e-01" purity="3.7378641963005066e-01" nType="-99"/>
            <Node pos="r" depth="3" NCoef="0" IVar="-1" Cut="0.0000000000000000e+00" cType="1" res="7.3329883813858032e-01" rms="3.3995324373245239e-01" purity="8.6664938926696777e-01" nType="-99"/>
          </Node>
          <Node pos="r" depth="2" NCoef="0" IVar="-1" Cut="0.0000000000000000e+00" cType="1" res="-5.8024692535400391e-01" rms="4.0722030401229858e-01" purity="2.0987653732299805e-01" nType="-99"/>
        </Node>
        <Node pos="r" depth="1" NCoef="0" IVar="3" Cut="9.0744485855102539e+00" cType="1" res="-3.8747280836105347e-01" rms="3.1601396203041077e-01" purity="1.1252719908952713e-01" nType="0">
          <Node pos="l" depth="2" NCoef="0" IVar="2" Cut="-4.7125463485717773e+00" cType="1" res="-4.6543502807617188e-01" rms="1.8267518281936646e-01" purity="3.4564957022666931e-02" nType="0">
            <Node pos="l" depth="3" NCoef="0" IVar="-1" Cut="0.0000000000000000e+00" cType="1" res="-6.7980295419692993e-01" rms="3.6669740080833435e-01" purity="1.6009852290153503e-01" nType="-99"/>
            <Node pos="r" depth="3" NCoef="0" IVar="-1" Cut="0.0000000000000000e+00" cType="1" res="-9.7915679216384888e-01" rms="1.0155289620161057e-01" purity="1.0421601124107838e-02" nType="-99"/>
          </Node>
          <Node pos="r" depth="2" NCoef="0" IVar="-1" Cut="0.0000000000000000e+00" cType="1" res="-2.1428571641445160e-01" rms="4.8838549852371216e-01" purity="3.9285713434219360e-01" nType="-99"/>
        </Node>
      </Node>
    </BinaryTree>
    <BinaryTree type="DecisionTree" boostWeight="1.0000000000000000e+00" itree="1">
      <Node pos="s" depth="0" NCoef="0" IVar="9" Cut="2.2695310115814209e+00" cType="1" res="-7.8303609043359756e-03" rms="3.3615878224372864e-01" purity="5.0000000000000000e-01" nType="0">
        <Node pos="l" depth="1" NCoef="0" IVar="3" Cut="8.5860166549682617e+00" cType="1" res="6.0172986239194870e-02" rms="3.4573087096214294e-01" purity="6.6329449415206909e-01" nType="0">
          <Node pos="l" depth="2" NCoef="0" IVar="-1" Cut="0.0000000000000000e+00" cType="1" res="-5.5085533857345581e-01" rms="1.3239450752735138e-01" purity="1.7973857000470161e-02" nType="-99"/>
          <Node pos="r" depth="2" NCoef="0" IVar="0" Cut="8.5421047210693359e+00" cType="1" res="8.6579166352748871e-02" rms="3.5644382238388062e-01" purity="7.4864923954010010e-01" nType="0">
            <Node pos="l" depth="3" NCoef="0" IVar="-1" Cut="0.0000000000000000e+00" cType="1" res="3.9229950308799744e-01" rms="3.2107821106910706e-01" purity="7.7692961692810059e-01" nType="-99"/>
            <Node pos="r" depth="3" NCoef="0" IVar="-1" Cut="0.0000000000000000e+00" cType="1" res="-1.4911088347434998e-01" rms="4.2509710788726807e-01" purity="6.5688073635101318e-01" nType="-99"/>
          </Node>
        </Node>
        <Node pos="r" depth="1" NCoef="0" IVar="2" Cut="-6.2600765228271484e+00" cType="1" res="-1.4191751182079315e-01" rms="2.7024993300437927e-01" purity="1.7802032828330994e-01" nType="0">
          <Node pos="l" depth="2" NCoef="0" IVar="-1" Cut="0.0000000000000000e+00" cType="1" res="-3.6044031381607056e-02" rms="3.6815765500068665e-01" purity="6.7464113235473633e-01" nType="-99"/>
          <Node pos="r" depth="2" NCoef="0" IVar="0" Cut="8.4454965591430664e+00" cType="1" res="-1.6620966792106628e-01" rms="2.4003110826015472e-01" purity="8.5305936634540558e-02" nType="0">
            <Node pos="l" depth="3" NCoef="0" IVar="-1" Cut="0.0000000000000000e+00" cType="1" res="-5.1534342765808105e-01" rms="2.0021629333496094e-01" purity="7.5451068580150604e-02" nType="-99"/>
            <Node pos="r" depth="3" NCoef="0" IVar="-1" Cut="0.0000000000000000e+00" cType="1" res="-8.5840696096420288e-01" rms="3.4529066085815430e-01" purity="1.2926828861236572e-01" nType="-99"/>
          </Node>
        </Node>
      </Node>
    </BinaryTree>
    <BinaryTree type="DecisionTree" boostWeight="1.0000000000000000e+00" itree="2">
      <Node pos="s" depth="0" NCoef="0" IVar="3" Cut="9.4016227722167969e+00" cType="1" res="-6.6508525051176548e-03" rms="3.0678111314773560e-01" purity="5.0000000000000000e-01" nType="0">
        <Node pos="l" depth="1" NCoef="0" IVar="4" Cut="4.6004462890625000e+03" cType="1" res="-4.5023091137409210e-02" rms="2.9373720288276672e-01" purity="3.5067364573478699e-01" nType="0">
          <Node pos="l" depth="2" NCoef="0" IVar="6" Cut="5.2164998054504395e+00" cType="1" res="-1.9771981984376907e-02" rms="2.8864291310310364e-01" purity="3.9288848638534546e-01" nType="0">
            <Node pos="l" depth="3" NCoef="0" IVar="-1" Cut="0.0000000000000000e+00" cType="1" res="-2.9562959074974060e-01" rms="2.5747469067573547e-01" purity="2.0292317867279053e-01" nType="-99"/>
            <Node pos="r" depth="3" NCoef="0" IVar="-1" Cut="0.0000000000000000e+00" cType="1" res="1.8145133554935455e-01" rms="3.2824164628982544e-01" purity="7.3915737867355347e-01" nType="-99"/>
          </Node>
          <Node pos="r" depth="2" NCoef="0" IVar="-1" Cut="0.0000000000000000e+00" cType="1" res="-7.4138981103897095e-01" rms="2.8006026148796082e-01" purity="1.0659898817539215e-01" nType="-99"/>
        </Node>
        <Node pos="r" depth="1" NCoef="0" IVar="0" Cut="8.9115028381347656e+00" cType="1" res="7.3702298104763031e-02" rms="3.1776967644691467e-01" purity="8.1269592046737671e-01" nType="0">
          <Node pos="l" depth="2" NCoef="0" IVar="4" Cut="4.6662871093750000e+03" cType="1" res="1.0288297384977341e-01" rms="2.7537950873374939e-01" purity="8.5983067750930786e-01" nType="0">
            <Node pos="l" depth="3" NCoef="0" IVar="-1" Cut="0.0000000000000000e+00" cType="1" res="5.4756015539169312e-01" rms="2.1854527294635773e-01" purity="9.5686042308807373e-01" nType="-99"/>
            <Node pos="r" depth="3" NCoef="0" IVar="-1" Cut="0.0000000000000000e+00" cType="1" res="-9.5386892557144165e-02" rms="3.9398646354675293e-01" purity="5.0547045469284058e-01" nType="-99"/>
          </Node>
          <Node pos="r" depth="2" NCoef="0" IVar="-1" Cut="0.0000000000000000e+00" cType="1" res="-1.9710166752338409e-01" rms="4.4833302497863770e-01" purity="5.7746475934982300e-01" nType="-99"/>
        </Node>
      </Node>
    </BinaryTree>
    <BinaryTree type="DecisionTree" boostWeight="1.0000000000000000e+00" itree="3">
      <Node pos="s" depth="0" NCoef="0" IVar="8" Cut="1.5860903263092041e+00" cType="1" res="3.4624703694134951e-03" rms="2.8559520840644836e-01" purity="5.0000000000000000e-01" nType="0">
        <Node pos="l" depth="1" NCoef="0" IVar="7" Cut="4.2389454841613770e+00" cType="1" res="2.5194741785526276e-02" rms="2.8445795178413391e-01" purity="6.0269731283187866e-01" nType="0">
          <Node pos="l" depth="2" NCoef="0" IVar="9" Cut="1.5568565130233765e+00" cType="1" res="-2.4600865319371223e-02" rms="2.6922416687011719e-01" purity="2.6547232270240784e-01" nType="0">
            <Node pos="l" depth="3" NCoef="0" IVar="-1" Cut="0.0000000000000000e+00" cType="1" res="1.5098863840103149e-01" rms="3.3014702796936035e-01" purity="5.6097561120986938e-01" nType="-99"/>
            <Node pos="r" depth="3" NCoef="0" IVar="-1" Cut="0.0000000000000000e+00" cType="1" res="-3.6719864606857300e-01" rms="2.3157593607902527e-01" purity="1.3170346617698669e-01" nType="-99"/>
          </Node>
          <Node pos="r" depth="2" NCoef="0" IVar="5" Cut="5.3307089805603027e+00" cType="1" res="5.0358943641185760e-02" rms="2.8860437870025635e-01" purity="7.7311384677886963e-01" nType="0">
            <Node pos="l" depth="3" NCoef="0" IVar="-1" Cut="0.0000000000000000e+00" cType="1" res="3.5188546776771545e-01" rms="2.7138945460319519e-01" purity="7.5935596227645874e-01" nType="-99"/>
            <Node pos="r" depth="3" NCoef="0" IVar="-1" Cut="0.0000000000000000e+00" cType="1" res="4.5599550008773804e-02" rms="3.1159198284149170e-01" purity="7.9658502340316772e-01" nType="-99"/>
          </Node>
        </Node>
        <Node pos="r" depth="1" NCoef="0" IVar="5" Cut="5.7098054885864258e+00" cType="1" res="-4.6037312597036362e-02" rms="2.8198447823524475e-01" purity="2.6608550548553467e-01" nType="0">
          <Node pos="l" depth="2" NCoef="0" IVar="1" Cut="4.7503976821899414e+00" cType="1" res="-2.5063663721084595e-02" rms="2.5060552358627319e-01" purity="2.2222222387790680e-01" nType="0">
            <Node pos="l" depth="3" NCoef="0" IVar="-1" Cut="0.0000000000000000e+00" cType="1" res="-3.4194779396057129e-01" rms="2.0186989009380341e-01" purity="9.3795090913772583e-02" nType="-99"/>
            <Node pos="r" depth="3" NCoef="0" IVar="-1" Cut="0.0000000000000000e+00" cType="1" res="7.8219972550868988e-02" rms="3.3061593770980835e-01" purity="5.0885665416717529e-01" nType="-99"/>
          </Node>
          <Node pos="r" depth="2" NCoef="0" IVar="-1" Cut="0.0000000000000000e+00" cType="1" res="-6.0750991106033325e-01" rms="3.8702759146690369e-01" purity="4.8507463932037354e-01" nType="-99"/>
        </Node>
      </Node>
    </BinaryTree>
    <BinaryTree type="DecisionTree" boostWeight="1.0000000000000000e+00" itree="4">
      <Node pos="s" depth="0" NCoef="0" IVar="4" Cut="5.2211123046875000e+03" cType="1" res="8.8865752331912518e-04" rms="2.7586179971694946e-01" purity="5.0000000000000000e-01" nType="0">
        <Node pos="l" depth="1" NCoef="0" IVar="0" Cut="8.3109045028686523e+00" cType="1" res="7.3209707625210285e-03" rms="2.7494436502456665e-01" purity="5.2330082654953003e-01" nType="0">
          <Node pos="l" depth="2" NCoef="0" IVar="3" Cut="8.7219505310058594e+00" cType="1" res="2.6017991825938225e-02" rms="2.2635181248188019e-01" purity="5.0095039606094360e-01" nType="0">
            <Node pos="l" depth="3" NCoef="0" IVar="-1" Cut="0.0000000000000000e+00" cType="1" res="-3.0140587687492371e-01" rms="1.3986310362815857e-01" purity="3.2547697424888611e-02" nType="-99"/>
            <Node pos="r" depth="3" NCoef="0" IVar="-1" Cut="0.0000000000000000e+00" cType="1" res="3.2239720225334167e-01" rms="2.6058083772659302e-01" purity="7.8360986709594727e-01" nType="-99"/>
          </Node>
          <Node pos="r" depth="2" NCoef="0" IVar="4" Cut="4.2533681640625000e+03" cType="1" res="-2.4825140833854675e-02" rms="3.4035468101501465e-01" purity="5.6172841787338257e-01" nType="0">
            <Node pos="l" depth="3" NCoef="0" IVar="-1" Cut="0.0000000000000000e+00" cType="1" res="-7.8753167763352394e-03" rms="3.2891800999641418e-01" purity="5.7851594686508179e-01" nType="-99"/>
            <Node pos="r" depth="3" NCoef="0" IVar="-1" Cut="0.0000000000000000e+00" cType="1" res="-7.1488779783248901e-01" rms="3.7222859263420105e-01" purity="4.7247707843780518e-01" nType="-99"/>
          </Node>
        </Node>
        <Node pos="r" depth="1" NCoef="0" IVar="-1" Cut="0.0000000000000000e+00" cType="1" res="-4.9013388156890869e-01" rms="2.6575940847396851e-01" purity="7.1253068745136261e-02" nType="-99"/>
      </Node>
    </BinaryTree>
    <BinaryTree type="DecisionTree" boostWeight="1.0000000000000000e+00" itree="5">
      <Node pos="s" depth="0" NCoef="0" IVar="3" Cut="9.8094263076782227e+00" cType="1" res="5.1783298840746284e-04" rms="2.6539996266365051e-01" purity="5.0000000000000000e-01" nType="0">
        <Node pos="l" depth="1" NCoef="0" IVar="0" Cut="8.7774152755737305e+00" cType="1" res="-9.4627216458320618e-03" rms="2.5958210229873657e-01" purity="4.6459001302719116e-01" nType="0">
          <Node pos="l" depth="2" NCoef="0" IVar="4" Cut="4.3786870117187500e+03" cType="1" res="-2.5725273881107569e-03" rms="2.4560678005218506e-01" purity="4.6837708353996277e-01" nType="0">
            <Node pos="l" depth="3" NCoef="0" IVar="-1" Cut="0.0000000000000000e+00" cType="1" res="8.0946661531925201e-02" rms="2.4112558364868164e-01" purity="5.0702810287475586e-01" nType="-99"/>
            <Node pos="r" depth="3" NCoef="0" IVar="-1" Cut="0.0000000000000000e+00" cType="1" res="-2.8853267431259155e-01" rms="2.5438347458839417e-01" purity="3.5672852396965027e-01" nType="-99"/>
          </Node>
          <Node pos="r" depth="2" NCoef="0" IVar="-1" Cut="0.0000000000000000e+00" cType="1" res="-3.6969575285911560e-01" rms="4.0050229430198669e-01" purity="4.0879121422767639e-01" nType="-99"/>
        </Node>
        <Node pos="r" depth="1" NCoef="0" IVar="-1" Cut="0.0000000000000000e+00" cType="1" res="4.2542341351509094e-01" rms="2.9956445097923279e-01" purity="8.4396201372146606e-01" nType="-99"/>
      </Node>
    </BinaryTree>
    <BinaryTree type="DecisionTree" boostWeight="1.0000000000000000e+00" itree="6">
      <Node pos="s" depth="0" NCoef="0" IVar="3" Cut="9.1977214813232422e+00" cType="1" res="1.1493911733850837e-03" rms="2.5797644257545471e-01" purity="5.0000000000000000e-01" nType="0">
        <Node pos="l" depth="1" NCoef="0" IVar="0" Cut="8.3955402374267578e+00" cType="1" res="-2.2711008787155151e-02" rms="2.3798255622386932e-01" purity="2.5251317024230957e-01" nType="0">
          <Node pos="l" depth="2" NCoef="0" IVar="6" Cut="6.6128716468811035e+00" cType="1" res="-9.5402393490076065e-03" rms="2.2281011939048767e-01" purity="2.6201990246772766e-01" nType="0">
            <Node pos="l" depth="3" NCoef="0" IVar="-1" Cut="0.0000000000000000e+00" cType="1" res="-1.6026818752288818e-01" rms="2.1457880735397339e-01" purity="1.9401544332504272e-01" nType="-99"/>
            <Node pos="r" depth="3" NCoef="0" IVar="-1" Cut="0.0000000000000000e+00" cType="1" res="2.8059402108192444e-01" rms="2.7181142568588257e-01" purity="7.8132677078247070e-01" nType="-99"/>
          </Node>
          <Node pos="r" depth="2" NCoef="0" IVar="-1" Cut="0.0000000000000000e+00" cType="1" res="-5.4100507497787476e-01" rms="2.9648941755294800e-01" purity="2.0211161673069000e-01" nType="-99"/>
        </Node>
        <Node pos="r" depth="1" NCoef="0" IVar="5" Cut="4.0303020477294922e+00" cType="1" res="2.7961857616901398e-02" rms="2.7629002928733826e-01" purity="7.7810651063919067e-01" nType="0">
          <Node pos="l" depth="2" NCoef="0" IVar="2" Cut="-5.4031405448913574e+00" cType="1" res="6.2762483954429626e-02" rms="2.5900956988334656e-01" purity="7.4542009830474854e-01" nType="0">
            <Node pos="l" depth="3" NCoef="0" IVar="-1" Cut="0.0000000000000000e+00" cType="1" res="3.1666657328605652e-01" rms="2.2268794476985931e-01" purity="8.2779198884963989e-01" nType="-99"/>
            <Node pos="r" depth="3" NCoef="0" IVar="-1" Cut="0.0000000000000000e+00" cType="1" res="4.6232572197914124e-01" rms="3.3765378594398499e-01" purity="5.0975608825683594e-01" nType="-99"/>
          </Node>
          <Node pos="r" depth="2" NCoef="0" IVar="6" Cut="5.3938546180725098e+00" cType="1" res="2.1588648669421673e-03" rms="2.8571143746376038e-01" purity="8.0234193801879883e-01" nType="0">
            <Node pos="l" depth="3" NCoef="0" IVar="-1" Cut="0.0000000000000000e+00" cType="1" res="-3.0598384141921997e-01" rms="3.6645585298538208e-01" purity="6.1739128828048706e-01" nType="-99"/>
            <Node pos="r" depth="3" NCoef="0" IVar="-1" Cut="0.0000000000000000e+00" cType="1" res="1.7065727710723877e-01" rms="2.4501745402812958e-01" purity="8.7051284313201904e-01" nType="-99"/>
          </Node>
        </Node>
      </Node>
    </BinaryTree>
    <BinaryTree type="DecisionTree" boostWeight="1.0000000000000000e+00" itree="7">
      <Node pos="s" depth="0" NCoef="0" IVar="4" Cut="4.1020458984375000e+03" cType="1" res="7.5388350524008274e-04" rms="2.5001105666160583e-01" purity="5.0000000000000000e-01" nType="0">
        <Node pos="l" depth="1" NCoef="0" IVar="1" Cut="4.9496541023254395e+00" cType="1" res="1.2738531455397606e-02" rms="2.5381651520729065e-01" purity="4.9201741814613342e-01" nType="0">
          <Node pos="l" depth="2" NCoef="0" IVar="2" Cut="-5.3891410827636719e+00" cType="1" res="-8.2601197063922882e-03" rms="2.2663323581218719e-01" purity="2.5217062234878540e-01" nType="0">
            <Node pos="l" depth="3" NCoef="0" IVar="-1" Cut="0.0000000000000000e+00" cType="1" res="-2.4999722838401794e-01" rms="3.1857782602310181e-01" purity="6.7882186174392700e-01" nType="-99"/>
            <Node pos="r" depth="3" NCoef="0" IVar="-1" Cut="0.0000000000000000e+00" cType="1" res="7.0735603570938110e-02" rms="1.7944605648517609e-01" purity="9.5041319727897644e-02" nType="-99"/>
          </Node>
          <Node pos="r" depth="2" NCoef="0" IVar="5" Cut="6.6641707420349121e+00" cType="1" res="3.8325205445289612e-02" rms="2.8132650256156921e-01" purity="7.8426861763000488e-01" nType="0">
            <Node pos="l" depth="3" NCoef="0" IVar="-1" Cut="0.0000000000000000e+00" cType="1" res="3.2739278674125671e-01" rms="2.7192580699920654e-01" purity="7.9402983188629150e-01" nType="-99"/>
            <Node pos="r" depth="3" NCoef="0" IVar="-1" Cut="0.0000000000000000e+00" cType="1" res="-7.3436461389064789e-02" rms="3.0507245659828186e-01" purity="7.5150299072265625e-01" nType="-99"/>
          </Node>
        </Node>
        <Node pos="r" depth="1" NCoef="0" IVar="5" Cut="5.1868634223937988e+00" cType="1" res="-1.8055735155940056e-02" rms="2.4272857606410980e-01" purity="5.1252847909927368e-01" nType="0">
          <Node pos="l" depth="2" NCoef="0" IVar="2" Cut="-7.0988764762878418e+00" cType="1" res="-7.0213456638157368e-03" rms="2.2731919586658478e-01" purity="4.9050152301788330e-01" nType="0">
            <Node pos="l" depth="3" NCoef="0" IVar="-1" Cut="0.0000000000000000e+00" cType="1" res="4.3412083387374878e-01" rms="2.0457281172275543e-01" purity="8.9498805999755859e-01" nType="-99"/>
            <Node pos="r" depth="3" NCoef="0" IVar="-1" Cut="0.0000000000000000e+00" cType="1" res="-1.4896953105926514e-01" rms="2.2967240214347839e-01" purity="4.1391775012016296e-01" nType="-99"/>
          </Node>
          <Node pos="r" depth="2" NCoef="0" IVar="-1" Cut="0.0000000000000000e+00" cType="1" res="-5.2401012182235718e-01" rms="3.1158041954040527e-01" purity="6.4399093389511108e-01" nType="-99"/>
        </Node>
      </Node>
    </BinaryTree>
    <BinaryTree type="DecisionTree" boostWeight="1.0000000000000000e+00" itree="8">
      <Node pos="s" depth="0" NCoef="0" IVar="0" Cut="8.9675111770629883e+00" cType="1" res="2.0354501903057098e-03" rms="2.4242293834686279e-01" purity="5.0000000000000000e-01" nType="0">
        <Node pos="l" depth="1" NCoef="0" IVar="7" Cut="6.1471409797668457e+00" cType="1" res="5.7500377297401428e-03" rms="2.3029805719852448e-01" purity="5.0033366680145264e-01" nType="0">
          <Node pos="l" depth="2" NCoef="0" IVar="5" Cut="5.7822313308715820e+00" cType="1" res="-3.6125914193689823e-03" rms="2.2869397699832916e-01" purity="3.7970539927482605e-01" nType="0">
            <Node pos="l" depth="3" NCoef="0" IVar="-1" Cut="0.0000000000000000e+00" cType="1" res="1.6053125262260437e-02" rms="2.1928925812244415e-01" purity="3.6784097552299500e-01" nType="-99"/>
            <Node pos="r" depth="3" NCoef="0" IVar="-1" Cut="0.0000000000000000e+00" cType="1" res="-3.7015432119369507e-01" rms="3.1456848978996277e-01" purity="5.2392345666885376e-01" nType="-99"/>
          </Node>
          <Node pos="r" depth="2" NCoef="0" IVar="3" Cut="9.7002410888671875e+00" cType="1" res="3.1570047140121460e-02" rms="2.3272129893302917e-01" purity="8.3299899101257324e-01" nType="0">
            <Node pos="l" depth="3" NCoef="0" IVar="-1" Cut="0.0000000000000000e+00" cType="1" res="1.5758535265922546e-01" rms="2.4390535056591034e-01" purity="8.0440253019332886e-01" nType="-99"/>
            <Node pos="r" depth="3" NCoef="0" IVar="-1" Cut="0.0000000000000000e+00" cType="1" res="5.5073803663253784e-01" rms="1.7836955189704895e-01" purity="9.4554454088211060e-01" nType="-99"/>
          </Node>
        </Node>
        <Node pos="r" depth="1" NCoef="0" IVar="-1" Cut="0.0000000000000000e+00" cType="1" res="-2.3737701773643494e-01" rms="4.0038964152336121e-01" purity="4.9379652738571167e-01" nType="-99"/>
      </Node>
    </BinaryTree>
    <BinaryTree type="DecisionTree" boostWeight="1.0000000000000000e+00" itree="9">
      <Node pos="s" depth="0" NCoef="0" IVar="4" Cut="4.9843867187500000e+03" cType="1" res="1.0989853180944920e-03" rms="2.3980356752872467e-01" purity="5.0000000000000000e-01" nType="0">
        <Node pos="l" depth="1" NCoef="0" IVar="3" Cut="9.0302152633666992e+00" cType="1" res="5.4394979961216450e-03" rms="2.3942452669143677e-01" purity="5.3590625524520874e-01" nType="0">
          <Node pos="l" depth="2" NCoef="0" IVar="0" Cut="8.1832160949707031e+00" cType="1" res="-1.1302848346531391e-02" rms="2.0651602745056152e-01" purity="1.6067929565906525e-01" nType="0">
            <Node pos="l" depth="3" NCoef="0" IVar="-1" Cut="0.0000000000000000e+00" cType="1" res="2.0962120965123177e-02" rms="1.8951530754566193e-01" purity="1.7074388265609741e-01" nType="-99"/>
            <Node pos="r" depth="3" NCoef="0" IVar="-1" Cut="0.0000000000000000e+00" cType="1" res="-3.1632998585700989e-01" rms="2.3333497345447540e-01" purity="1.4164306223392487e-01" nType="-99"/>
          </Node>
          <Node pos="r" depth="2" NCoef="0" IVar="4" Cut="3.6134099121093750e+03" cType="1" res="1.7665842548012733e-02" rms="2.6016673445701599e-01" purity="8.0992132425308228e-01" nType="0">
            <Node pos="l" depth="3" NCoef="0" IVar="-1" Cut="0.0000000000000000e+00" cType="1" res="2.7211299538612366e-01" rms="3.1703528761863708e-01" purity="7.4587458372116089e-01" nType="-99"/>
            <Node pos="r" depth="3" NCoef="0" IVar="-1" Cut="0.0000000000000000e+00" cType="1" res="2.1797817200422287e-02" rms="2.3142886161804199e-01" purity="8.3596110343933105e-01" nType="-99"/>
          </Node>
        </Node>
        <Node pos="r" depth="1" NCoef="0" IVar="-1" Cut="0.0000000000000000e+00" cType="1" res="-3.3372282981872559e-01" rms="2.3861053586006165e-01" purity="9.3603745102882385e-02" nType="-99"/>
      </Node>
    </BinaryTree>
    <BinaryTree type="DecisionTree" boostWeight="1.0000000000000000e+00" itree="10">
      <Node pos="s" depth="0" NCoef="0" IVar="0" Cut="8.6104097366333008e+00" cType="1" res="-3.4854165278375149e-04" rms="2.3582699894905090e-01" purity="5.0000000000000000e-01" nType="0">
        <Node pos="l" depth="1" NCoef="0" IVar="6" Cut="4.4310402870178223e+00" cType="1" res="5.7931514456868172e-03" rms="2.1520501375198364e-01" purity="4.8873874545097351e-01" nType="0">
          <Node pos="l" depth="2" NCoef="0" IVar="5" Cut="3.7965333461761475e+00" cType="1" res="-9.8215881735086441e-03" rms="1.9390347599983215e-01" purity="2.0109814405441284e-01" nType="0">
            <Node pos="l" depth="3" NCoef="0" IVar="-1" Cut="0.0000000000000000e+00" cType="1" res="5.5927500128746033e-02" rms="1.6750422120094299e-01" purity="1.9176597893238068e-01" nType="-99"/>
            <Node pos="r" depth="3" NCoef="0" IVar="-1" Cut="0.0000000000000000e+00" cType="1" res="-3.2613658905029297e-01" rms="2.3073934018611908e-01" purity="2.1722845733165741e-01" nType="-99"/>
          </Node>
          <Node pos="r" depth="2" NCoef="0" IVar="5" Cut="3.5804798603057861e+00" cType="1" res="1.7939802259206772e-02" rms="2.2968474030494690e-01" purity="7.1249330043792725e-01" nType="0">
            <Node pos="l" depth="3" NCoef="0" IVar="-1" Cut="0.0000000000000000e+00" cType="1" res="3.7511706352233887e-01" rms="2.0903819799423218e-01" purity="6.8705403804779053e-01" nType="-99"/>
            <Node pos="r" depth="3" NCoef="0" IVar="-1" Cut="0.0000000000000000e+00" cType="1" res="7.3963329195976257e-02" rms="2.3589675128459930e-01" purity="7.2151899337768555e-01" nType="-99"/>
          </Node>
        </Node>
        <Node pos="r" depth="1" NCoef="0" IVar="3" Cut="9.5004072189331055e+00" cType="1" res="-3.3442128449678421e-02" rms="3.2316234707832336e-01" purity="5.6067961454391479e-01" nType="0">
          <Node pos="l" depth="2" NCoef="0" IVar="-1" Cut="0.0000000000000000e+00" cType="1" res="-3.9668959379196167e-01" rms="3.1377959251403809e-01" purity="3.3395522832870483e-01" nType="-99"/>
          <Node pos="r" depth="2" NCoef="0" IVar="-1" Cut="0.0000000000000000e+00" cType="1" res="1.0687587782740593e-02" rms="3.2570058107376099e-01" purity="7.3428571224212646e-01" nType="-99"/>
        </Node>
      </Node>
    </BinaryTree>
    <BinaryTree type="DecisionTree" boostWeight="1.0000000000000000e+00" itree="11">
      <Node pos="s" depth="0" NCoef="0" IVar="4" Cut="3.8007590332031250e+03" cType="1" res="7.3153883022314403e-06" rms="2.3200073838233948e-01" purity="5.0000000000000000e-01" nType="0">
        <Node pos="l" depth="1" NCoef="0" IVar="0" Cut="8.0455331802368164e+00" cType="1" res="1.1917144060134888e-02" rms="2.4517078697681427e-01" purity="4.2928591370582581e-01" nType="0">
          <Node pos="l" depth="2" NCoef="0" IVar="4" Cut="3.1608425292968750e+03" cType="1" res="-1.8700346350669861e-02" rms="1.7540657520294189e-01" purity="2.5604298710823059e-01" nType="0">
            <Node pos="l" depth="3" NCoef="0" IVar="-1" Cut="0.0000000000000000e+00" cType="1" res="-5.7517462968826294e-01" rms="1.6084013879299164e-01" purity="7.6152302324771881e-02" nType="-99"/>
            <Node pos="r" depth="3" NCoef="0" IVar="-1" Cut="0.0000000000000000e+00" cType="1" res="-1.9155336543917656e-02" rms="1.8453207612037659e-01" purity="4.0129449963569641e-01" nType="-99"/>
          </Node>
          <Node pos="r" depth="2" NCoef="0" IVar="2" Cut="-4.3322329521179199e+00" cType="1" res="2.5696247816085815e-02" rms="2.6963254809379578e-01" purity="5.0725221633911133e-01" nType="0">
            <Node pos="l" depth="3" NCoef="0" IVar="-1" Cut="0.0000000000000000e+00" cType="1" res="2.0177659392356873e-01" rms="3.0534818768501282e-01" purity="6.8179333209991455e-01" nType="-99"/>
            <Node pos="r" depth="3" NCoef="0" IVar="-1" Cut="0.0000000000000000e+00" cType="1" res="-2.1607384085655212e-01" rms="1.1708535999059677e-01" purity="1.8376722931861877e-02" nType="-99"/>
          </Node>
        </Node>
        <Node pos="r" depth="1" NCoef="0" IVar="6" Cut="7.5509996414184570e+00" cType="1" res="-9.9678933620452881e-03" rms="2.1986924111843109e-01" purity="5.5922734737396240e-01" nType="0">
          <Node pos="l" depth="2" NCoef="0" IVar="5" Cut="3.3074383735656738e+00" cType="1" res="-1.5699667856097221e-02" rms="2.2100347280502319e-01" purity="5.1291608810424805e-01" nType="0">
            <Node pos="l" depth="3" NCoef="0" IVar="-1" Cut="0.0000000000000000e+00" cType="1" res="2.6326555758714676e-02" rms="1.9370427727699280e-01" purity="4.2482611536979675e-01" nType="-99"/>
            <Node pos="r" depth="3" NCoef="0" IVar="-1" Cut="0.0000000000000000e+00" cType="1" res="-2.9552575945854187e-01" rms="2.4374783039093018e-01" purity="6.0021209716796875e-01" nType="-99"/>
          </Node>
          <Node pos="r" depth="2" NCoef="0" IVar="-1" Cut="0.0000000000000000e+00" cType="1" res="2.6934885978698730e-01" rms="2.0754177868366241e-01" purity="8.8007378578186035e-01" nType="-99"/>
        </Node>
      </Node>
    </BinaryTree>
    <BinaryTree type="DecisionTree" boostWeight="1.0000000000000000e+00" itree="12">
      <Node pos="s" depth="0" NCoef="0" IVar="0" Cut="8.9675111770629883e+00" cType="1" res="1.1067734158132225e-04" rms="2.2737595438957214e-01" purity="5.0000000000000000e-01" nType="0">
        <Node pos="l" depth="1" NCoef="0" IVar="4" Cut="4.5754970703125000e+03" cType="1" res="3.8269653450697660e-03" rms="2.1412481367588043e-01" purity="5.0033366680145264e-01" nType="0">
          <Node pos="l" depth="2" NCoef="0" IVar="1" Cut="3.4587557315826416e+00" cType="1" res="8.7935114279389381e-03" rms="2.1162027120590210e-01" purity="5.4459172487258911e-01" nType="0">
            <Node pos="l" depth="3" NCoef="0" IVar="-1" Cut="0.0000000000000000e+00" cType="1" res="-2.0453731715679169e-01" rms="1.3918392360210419e-01" purity="1.1412268131971359e-01" nType="-99"/>
            <Node pos="r" depth="3" NCoef="0" IVar="-1" Cut="0.0000000000000000e+00" cType="1" res="1.3547815382480621e-01" rms="2.2845739126205444e-01" purity="6.7275428771972656e-01" nType="-99"/>
          </Node>
          <Node pos="r" depth="2" NCoef="0" IVar="8" Cut="7.7872341871261597e-01" cType="1" res="-1.8134368583559990e-02" rms="2.2354657948017120e-01" purity="3.0463096499443054e-01" nType="0">
            <Node pos="l" depth="3" NCoef="0" IVar="-1" Cut="0.0000000000000000e+00" cType="1" res="3.4020602703094482e-02" rms="2.4863097071647644e-01" purity="4.8596110939979553e-01" nType="-99"/>
            <Node pos="r" depth="3" NCoef="0" IVar="-1" Cut="0.0000000000000000e+00" cType="1" res="-2.6600304245948792e-01" rms="2.0889303088188171e-01" purity="2.1327529847621918e-01" nType="-99"/>
          </Node>
        </Node>
        <Node pos="r" depth="1" NCoef="0" IVar="-1" Cut="0.0000000000000000e+00" cType="1" res="-2.5841146707534790e-01" rms="3.9426541328430176e-01" purity="4.9379652738571167e-01" nType="-99"/>
      </Node>
    </BinaryTree>
    <BinaryTree type="DecisionTree" boostWeight="1.0000000000000000e+00" itree="13">
      <Node pos="s" depth="0" NCoef="0" IVar="5" Cut="7.0030446052551270e+00" cType="1" res="6.7630520788952708e-05" rms="2.2488409280776978e-01" purity="5.0000000000000000e-01" nType="0">
        <Node pos="l" depth="1" NCoef="0" IVar="1" Cut="6.7053232192993164e+00" cType="1" res="3.0709682032465935e-03" rms="2.1947264671325684e-01" purity="4.8773950338363647e-01" nType="0">
          <Node pos="l" depth="2" NCoef="0" IVar="5" Cut="4.7903962135314941e+00" cType="1" res="-1.7254546983167529e-03" rms="2.2199092805385590e-01" purity="4.1148093342781067e-01" nType="0">
            <Node pos="l" depth="3" NCoef="0" IVar="-1" Cut="0.0000000000000000e+00" cType="1" res="6.3807465136051178e-02" rms="2.0129533112049103e-01" purity="3.7073379755020142e-01" nType="-99"/>
            <Node pos="r" depth="3" NCoef="0" IVar="-1" Cut="0.0000000000000000e+00" cType="1" res="-1.8730156123638153e-01" rms="2.7463141083717346e-01" purity="5.3625082969665527e-01" nType="-99"/>
          </Node>
          <Node pos="r" depth="2" NCoef="0" IVar="0" Cut="8.0615034103393555e+00" cType="1" res="2.7049226686358452e-02" rms="2.0474494993686676e-01" purity="8.6897104978561401e-01" nType="0">
            <Node pos="l" depth="3" NCoef="0" IVar="-1" Cut="0.0000000000000000e+00" cType="1" res="5.2806901931762695e-01" rms="1.9325053691864014e-01" purity="8.7554585933685303e-01" nType="-99"/>
            <Node pos="r" depth="3" NCoef="0" IVar="-1" Cut="0.0000000000000000e+00" cType="1" res="1.2706747651100159e-01" rms="2.1002677083015442e-01" purity="8.6513996124267578e-01" nType="-99"/>
          </Node>
        </Node>
        <Node pos="r" depth="1" NCoef="0" IVar="-1" Cut="0.0000000000000000e+00" cType="1" res="-3.4026357531547546e-01" rms="2.9863473773002625e-01" purity="7.1131640672683716e-01" nType="-99"/>
      </Node>
    </BinaryTree>
    <BinaryTree type="DecisionTree" boostWeight="1.0000000000000000e+00" itree="14">
      <Node pos="s" depth="0" NCoef="0" IVar="2" Cut="-7.4761662483215332e+00" cType="1" res="7.3217198951169848e-04" rms="2.2289948165416718e-01" purity="5.0000000000000000e-01" nType="0">
        <Node pos="l" depth="1" NCoef="0" IVar="0" Cut="8.2810058593750000e+00" cType="1" res="2.4172050878405571e-02" rms="1.9503122568130493e-01" purity="9.2341840267181396e-01" nType="0">
          <Node pos="l" depth="2" NCoef="0" IVar="-1" Cut="0.0000000000000000e+00" cType="1" res="9.8885826766490936e-02" rms="1.5669451653957367e-01" purity="9.3186372518539429e-01" nType="-99"/>
          <Node pos="r" depth="2" NCoef="0" IVar="-1" Cut="0.0000000000000000e+00" cType="1" res="3.6397725343704224e-01" rms="2.3202647268772125e-01" purity="9.1293531656265259e-01" nType="-99"/>
        </Node>
        <Node pos="r" depth="1" NCoef="0" IVar="4" Cut="3.3918693847656250e+03" cType="1" res="-2.2870318498462439e-03" rms="2.2606304287910461e-01" purity="4.4546103477478027e-01" nType="0">
          <Node pos="l" depth="2" NCoef="0" IVar="5" Cut="4.6957740783691406e+00" cType="1" res="1.2838650494813919e-02" rms="2.4511475861072540e-01" purity="2.8311425447463989e-01" nType="0">
            <Node pos="l" depth="3" NCoef="0" IVar="-1" Cut="0.0000000000000000e+00" cType="1" res="-9.0334884822368622e-02" rms="1.9625584781169891e-01" purity="1.2536162137985229e-01" nType="-99"/>
            <Node pos="r" depth="3" NCoef="0" IVar="-1" Cut="0.0000000000000000e+00" cType="1" res="2.1598061919212341e-01" rms="2.8814670443534851e-01" purity="4.5696067810058594e-01" nType="-99"/>
          </Node>
          <Node pos="r" depth="2" NCoef="0" IVar="5" Cut="6.0916376113891602e+00" cType="1" res="-8.2504758611321449e-03" rms="2.1780627965927124e-01" purity="5.0946778059005737e-01" nType="0">
            <Node pos="l" depth="3" NCoef="0" IVar="-1" Cut="0.0000000000000000e+00" cType="1" res="-2.9082871973514557e-02" rms="2.0940190553665161e-01" purity="4.9524015188217163e-01" nType="-99"/>
            <Node pos="r" depth="3" NCoef="0" IVar="-1" Cut="0.0000000000000000e+00" cType="1" res="-5.1320046186447144e-01" rms="2.9182463884353638e-01" purity="6.7594939470291138e-01" nType="-99"/>
          </Node>
        </Node>
      </Node>
    </BinaryTree>
    <BinaryTree type="DecisionTree" boostWeight="1.0000000000000000e+00" itree="15">
      <Node pos="s" depth="0" NCoef="0" IVar="7" Cut="5.2928276062011719e+00" cType="1" res="7.1848934749141335e-04" rms="2.2034536302089691e-01" purity="5.0000000000000000e-01" nType="0">
        <Node pos="l" depth="1" NCoef="0" IVar="2" Cut="-5.2567777633666992e+00" cType="1" res="-6.3128555193543434e-03" rms="2.1182215213775635e-01" purity="3.0512875318527222e-01" nType="0">
          <Node pos="l" depth="2" NCoef="0" IVar="5" Cut="4.8728904724121094e+00" cType="1" res="-2.5512894615530968e-02" rms="2.6713383197784424e-01" purity="6.4402019977569580e-01" nType="0">
            <Node pos="l" depth="3" NCoef="0" IVar="-1" Cut="0.0000000000000000e+00" cType="1" res="-1.1814714223146439e-01" rms="2.5743719935417175e-01" purity="6.6191905736923218e-01" nType="-99"/>
            <Node pos="r" depth="3" NCoef="0" IVar="-1" Cut="0.0000000000000000e+00" cType="1" res="-3.4662652015686035e-01" rms="2.9175099730491638e-01" purity="5.9060400724411011e-01" nType="-99"/>
          </Node>
          <Node pos="r" depth="2" NCoef="0" IVar="2" Cut="-4.6857376098632812e+00" cType="1" res="5.7277320884168148e-03" rms="1.6697032749652863e-01" purity="9.2605635523796082e-02" nType="0">
            <Node pos="l" depth="3" NCoef="0" IVar="-1" Cut="0.0000000000000000e+00" cType="1" res="2.4654887616634369e-01" rms="2.6509034633636475e-01" purity="3.1921824812889099e-01" nType="-99"/>
            <Node pos="r" depth="3" NCoef="0" IVar="-1" Cut="0.0000000000000000e+00" cType="1" res="-9.0018808841705322e-02" rms="1.2575714290142059e-01" purity="3.0098831281065941e-02" nType="-99"/>
          </Node>
        </Node>
        <Node pos="r" depth="1" NCoef="0" IVar="0" Cut="7.8095479011535645e+00" cType="1" res="1.0639663785696030e-02" rms="2.3147618770599365e-01" purity="7.7496182918548584e-01" nType="0">
          <Node pos="l" depth="2" NCoef="0" IVar="-1" Cut="0.0000000000000000e+00" cType="1" res="3.5995283722877502e-01" rms="1.9722925126552582e-01" purity="7.3928570747375488e-01" nType="-99"/>
          <Node pos="r" depth="2" NCoef="0" IVar="4" Cut="4.3194169921875000e+03" cType="1" res="5.2500278688967228e-03" rms="2.3757028579711914e-01" purity="7.8232043981552124e-01" nType="0">
            <Node pos="l" depth="3" NCoef="0" IVar="-1" Cut="0.0000000000000000e+00" cType="1" res="1.0135312378406525e-01" rms="2.3622664809226990e-01" purity="8.1986367702484131e-01" nType="-99"/>
            <Node pos="r" depth="3" NCoef="0" IVar="-1" Cut="0.0000000000000000e+00" cType="1" res="-1.5668399631977081e-01" rms="2.4024821817874908e-01" purity="6.6565811634063721e-01" nType="-99"/>
          </Node>
        </Node>
      </Node>
    </BinaryTree>
    <BinaryTree type="DecisionTree" boostWeight="1.0000000000000000e+00" itree="16">
      <Node pos="s" depth="0" NCoef="0" IVar="2" Cut="-6.0168590545654297e+00" cType="1" res="3.2442080555483699e-04" rms="2.1730108559131622e-01" purity="5.0000000000000000e-01" nType="0">
        <Node pos="l" depth="1" NCoef="0" IVar="9" Cut="3.7763130664825439e-01" cType="1" res="1.0160975158214569e-02" rms="2.2762320935726166e-01" purity="8.3829158544540405e-01" nType="0">
          <Node pos="l" depth="2" NCoef="0" IVar="-1" Cut="0.0000000000000000e+00" cType="1" res="3.6968171596527100e-01" rms="2.1783517301082611e-01" purity="9.0856313705444336e-01" nType="-99"/>
          <Node pos="r" depth="2" NCoef="0" IVar="1" Cut="7.4102210998535156e+00" cType="1" res="3.7352691870182753e-03" rms="2.2960630059242249e-01" purity="8.2039910554885864e-01" nType="0">
            <Node pos="l" depth="3" NCoef="0" IVar="-1" Cut="0.0000000000000000e+00" cType="1" res="-1.4354500919580460e-02" rms="2.4192148447036743e-01" purity="7.9377430677413940e-01" nType="-99"/>
            <Node pos="r" depth="3" NCoef="0" IVar="-1" Cut="0.0000000000000000e+00" cType="1" res="2.1667642891407013e-01" rms="1.8430747091770172e-01" purity="9.0461540222167969e-01" nType="-99"/>
          </Node>
        </Node>
        <Node pos="r" depth="1" NCoef="0" IVar="2" Cut="-5.3087553977966309e+00" cType="1" res="-7.0950640365481377e-03" rms="2.0887237787246704e-01" purity="2.4483448266983032e-01" nType="0">
          <Node pos="l" depth="2" NCoef="0" IVar="5" Cut="4.7394604682922363e+00" cType="1" res="-2.9344270005822182e-02" rms="2.7164989709854126e-01" purity="5.8124494552612305e-01" nType="0">
            <Node pos="l" depth="3" NCoef="0" IVar="-1" Cut="0.0000000000000000e+00" cType="1" res="-1.0324983298778534e-01" rms="2.5197455286979675e-01" purity="6.2165451049804688e-01" nType="-99"/>
            <Node pos="r" depth="3" NCoef="0" IVar="-1" Cut="0.0000000000000000e+00" cType="1" res="-3.3839496970176697e-01" rms="3.0452722311019897e-01" purity="5.0120484828948975e-01" nType="-99"/>
          </Node>
          <Node pos="r" depth="2" NCoef="0" IVar="0" Cut="8.0679740905761719e+00" cType="1" res="1.3370036613196135e-03" rms="1.7870804667472839e-01" purity="1.1734068393707275e-01" nType="0">
            <Node pos="l" depth="3" NCoef="0" IVar="-1" Cut="0.0000000000000000e+00" cType="1" res="-1.7831237614154816e-01" rms="1.3526777923107147e-01" purity="7.1608036756515503e-02" nType="-99"/>
            <Node pos="r" depth="3" NCoef="0" IVar="-1" Cut="0.0000000000000000e+00" cType="1" res="1.2661457061767578e-01" rms="2.1141366660594940e-01" purity="1.6088517010211945e-01" nType="-99"/>
          </Node>
        </Node>
      </Node>
    </BinaryTree>
    <BinaryTree type="DecisionTree" boostWeight="1.0000000000000000e+00" itree="17">
      <Node pos="s" depth="0" NCoef="0" IVar="5" Cut="6.6050720214843750e+00" cType="1" res="3.9402281981892884e-04" rms="2.1518722176551819e-01" purity="5.0000000000000000e-01" nType="0">
        <Node pos="l" depth="1" NCoef="0" IVar="7" Cut="3.6926972866058350e+00" cType="1" res="2.1062328014522791e-03" rms="2.0898231863975525e-01" purity="4.8101615905761719e-01" nType="0">
          <Node pos="l" depth="2" NCoef="0" IVar="2" Cut="-4.5385365486145020e+00" cType="1" res="-8.6468048393726349e-03" rms="1.6588932275772095e-01" purity="1.2909260392189026e-01" nType="0">
            <Node pos="l" depth="3" NCoef="0" IVar="-1" Cut="0.0000000000000000e+00" cType="1" res="-1.8385267257690430e-01" rms="2.4057613313198090e-01" purity="3.3736559748649597e-01" nType="-99"/>
            <Node pos="r" depth="3" NCoef="0" IVar="-1" Cut="0.0000000000000000e+00" cType="1" res="1.5385515289381146e-03" rms="1.0535819828510284e-01" purity="1.7934001982212067e-02" nType="-99"/>
          </Node>
          <Node pos="r" depth="2" NCoef="0" IVar="7" Cut="4.4365758895874023e+00" cType="1" res="6.6096596419811249e-03" rms="2.2443357110023499e-01" purity="6.2840354442596436e-01" nType="0">
            <Node pos="l" depth="3" NCoef="0" IVar="-1" Cut="0.0000000000000000e+00" cType="1" res="1.8455584347248077e-01" rms="2.3802503943443298e-01" purity="3.6803278326988220e-01" nType="-99"/>
            <Node pos="r" depth="3" NCoef="0" IVar="-1" Cut="0.0000000000000000e+00" cType="1" res="2.3346928879618645e-02" rms="2.1983169019222260e-01" purity="7.1016728878021240e-01" nType="-99"/>
          </Node>
        </Node>
        <Node pos="r" depth="1" NCoef="0" IVar="-1" Cut="0.0000000000000000e+00" cType="1" res="-1.3101907074451447e-01" rms="2.7405366301536560e-01" purity="7.1056663990020752e-01" nType="-99"/>
      </Node>
    </BinaryTree>
    <BinaryTree type="DecisionTree" boostWeight="1.0000000000000000e+00" itree="18">
      <Node pos="s" depth="0" NCoef="0" IVar="4" Cut="5.2211123046875000e+03" cType="1" res="-4.8860256356419995e-06" rms="2.1431313455104828e-01" purity="5.0000000000000000e-01" nType="0">
        <Node pos="l" depth="1" NCoef="0" IVar="0" Cut="8.1611528396606445e+00" cType="1" res="1.3630639296025038e-03" rms="2.1312434971332550e-01" purity="5.2330082654953003e-01" nType="0">
          <Node pos="l" depth="2" NCoef="0" IVar="3" Cut="8.4500818252563477e+00" cType="1" res="7.9929782077670097e-03" rms="1.6796906292438507e-01" purity="4.8874244093894958e-01" nType="0">
            <Node pos="l" depth="3" NCoef="0" IVar="-1" Cut="0.0000000000000000e+00" cType="1" res="-6.0368096828460693e-01" rms="4.2159147560596466e-02" purity="0.0000000000000000e+00" nType="-99"/>
            <Node pos="r" depth="3" NCoef="0" IVar="-1" Cut="0.0000000000000000e+00" cType="1" res="1.7220160365104675e-01" rms="1.9188600778579712e-01" purity="6.5082263946533203e-01" nType="-99"/>
          </Node>
          <Node pos="r" depth="2" NCoef="0" IVar="3" Cut="9.4244651794433594e+00" cType="1" res="-4.9135531298816204e-03" rms="2.4825863540172577e-01" purity="5.5601769685745239e-01" nType="0">
            <Node pos="l" depth="3" NCoef="0" IVar="-1" Cut="0.0000000000000000e+00" cType="1" res="-1.3570113480091095e-01" rms="2.4969543516635895e-01" purity="3.9553496241569519e-01" nType="-99"/>
            <Node pos="r" depth="3" NCoef="0" IVar="-1" Cut="0.0000000000000000e+00" cType="1" res="1.0424747318029404e-01" rms="2.4476833641529083e-01" purity="8.1466394662857056e-01" nType="-99"/>
          </Node>
        </Node>
        <Node pos="r" depth="1" NCoef="0" IVar="-1" Cut="0.0000000000000000e+00" cType="1" res="-2.3638126254081726e-01" rms="2.3369209468364716e-01" purity="7.1253068745136261e-02" nType="-99"/>
      </Node>
    </BinaryTree>
    <BinaryTree type="DecisionTree" boostWeight="1.0000000000000000e+00" itree="19">
      <Node pos="s" depth="0" NCoef="0" IVar="0" Cut="8.8177595138549805e+00" cType="1" res="-3.9553255192004144e-04" rms="2.1228283643722534e-01" purity="5.0000000000000000e-01" nType="0">
        <Node pos="l" depth="1" NCoef="0" IVar="4" Cut="4.2957304687500000e+03" cType="1" res="1.8058182904496789e-03" rms="1.9764612615108490e-01" purity="4.9675548076629639e-01" nType="0">
          <Node pos="l" depth="2" NCoef="0" IVar="2" Cut="-4.9214696884155273e+00" cType="1" res="7.2332746349275112e-03" rms="1.9763559103012085e-01" purity="5.2006423473358154e-01" nType="0">
            <Node pos="l" depth="3" NCoef="0" IVar="-1" Cut="0.0000000000000000e+00" cType="1" res="1.3908830285072327e-01" rms="2.2652719914913177e-01" purity="8.1521737575531006e-01" nType="-99"/>
            <Node pos="r" depth="3" NCoef="0" IVar="-1" Cut="0.0000000000000000e+00" cType="1" res="-9.7660921514034271e-02" rms="1.4050009846687317e-01" purity="6.0061600059270859e-02" nType="-99"/>
          </Node>
          <Node pos="r" depth="2" NCoef="0" IVar="3" Cut="9.5951194763183594e+00" cType="1" res="-1.0168702341616154e-02" rms="1.9714160263538361e-01" purity="4.4532978534698486e-01" nType="0">
            <Node pos="l" depth="3" NCoef="0" IVar="-1" Cut="0.0000000000000000e+00" cType="1" res="-2.1526858210563660e-01" rms="1.9739590585231781e-01" purity="3.2701420783996582e-01" nType="-99"/>
            <Node pos="r" depth="3" NCoef="0" IVar="-1" Cut="0.0000000000000000e+00" cType="1" res="1.1523643136024475e-01" rms="1.9498001039028168e-01" purity="7.9509633779525757e-01" nType="-99"/>
          </Node>
        </Node>
        <Node pos="r" depth="1" NCoef="0" IVar="-1" Cut="0.0000000000000000e+00" cType="1" res="-1.1558471620082855e-01" rms="3.3311471343040466e-01" purity="5.3598773479461670e-01" nType="-99"/>
      </Node>
    </BinaryTree>
    <BinaryTree type="DecisionTree" boostWeight="1.0000000000000000e+00" itree="20">
      <Node pos="s" depth="0" NCoef="0" IVar="9" Cut="2.9225857257843018e+00" cType="1" res="1.0760308941826224e-04" rms="2.1010743081569672e-01" purity="5.0000000000000000e-01" nType="0">
        <Node pos="l" depth="1" NCoef="0" IVar="9" Cut="2.2953302860260010e+00" cType="1" res="2.1733250468969345e-03" rms="2.2066549956798553e-01" purity="5.7732576131820679e-01" nType="0">
          <Node pos="l" depth="2" NCoef="0" IVar="9" Cut="1.8785749673843384e+00" cType="1" res="-6.8387977080419660e-04" rms="2.2679194808006287e-01" purity="6.6087287664413452e-01" nType="0">
            <Node pos="l" depth="3" NCoef="0" IVar="-1" Cut="0.0000000000000000e+00" cType="1" res="3.3696539700031281e-02" rms="2.2389398515224457e-01" purity="7.0062953233718872e-01" nType="-99"/>
            <Node pos="r" depth="3" NCoef="0" IVar="-1" Cut="0.0000000000000000e+00" cType="1" res="-1.7570565640926361e-01" rms="2.3797871172428131e-01" purity="4.9103584885597229e-01" nType="-99"/>
          </Node>
          <Node pos="r" depth="2" NCoef="0" IVar="6" Cut="3.9676995277404785e+00" cType="1" res="1.3029883615672588e-02" rms="1.9526425004005432e-01" purity="2.5987076759338379e-01" nType="0">
            <Node pos="l" depth="3" NCoef="0" IVar="-1" Cut="0.0000000000000000e+00" cType="1" res="-1.3770903646945953e-01" rms="1.3098050653934479e-01" purity="5.9633027762174606e-02" nType="-99"/>
            <Node pos="r" depth="3" NCoef="0" IVar="-1" Cut="0.0000000000000000e+00" cType="1" res="2.8139516711235046e-01" rms="2.3691757023334503e-01" purity="4.3707713484764099e-01" nType="-99"/>
          </Node>
        </Node>
        <Node pos="r" depth="1" NCoef="0" IVar="2" Cut="-4.6688790321350098e+00" cType="1" res="-1.1306791566312313e-02" rms="1.3733188807964325e-01" purity="7.2727270424365997e-02" nType="0">
          <Node pos="l" depth="2" NCoef="0" IVar="-1" Cut="0.0000000000000000e+00" cType="1" res="-2.4638803303241730e-01" rms="2.2321683168411255e-01" purity="2.0638820528984070e-01" nType="-99"/>
          <Node pos="r" depth="2" NCoef="0" IVar="9" Cut="3.1402089595794678e+00" cType="1" res="-2.1242161747068167e-03" rms="5.3985349833965302e-02" purity="4.9813198857009411e-03" nType="0">
            <Node pos="l" depth="3" NCoef="0" IVar="-1" Cut="0.0000000000000000e+00" cType="1" res="3.6040682345628738e-02" rms="7.5173392891883850e-02" purity="9.9750626832246780e-03" nType="-99"/>
            <Node pos="r" depth="3" NCoef="0" IVar="-1" Cut="0.0000000000000000e+00" cType="1" res="-5.2126914262771606e-01" rms="1.3073305599391460e-02" purity="0.0000000000000000e+00" nType="-99"/>
          </Node>
        </Node>
      </Node>
    </BinaryTree>
    <BinaryTree type="DecisionTree" boostWeight="1.0000000000000000e+00" itree="21">
      <Node pos="s" depth="0" NCoef="0" IVar="8" Cut="-5.6923693418502808e-01" cType="1" res="-1.6945603420026600e-04" rms="2.0880427956581116e-01" purity="5.0000000000000000e-01" nType="0">
        <Node pos="l" depth="1" NCoef="0" IVar="2" Cut="-7.5891289710998535e+00" cType="1" res="-1.2415842153131962e-02" rms="1.9210344552993774e-01" purity="7.5104165077209473e-01" nType="0">
          <Node pos="l" depth="2" NCoef="0" IVar="-1" Cut="0.0000000000000000e+00" cType="1" res="-9.5567144453525543e-03" rms="1.8718202412128448e-01" purity="9.2424243688583374e-01" nType="-99"/>
          <Node pos="r" depth="2" NCoef="0" IVar="-1" Cut="0.0000000000000000e+00" cType="1" res="-2.6597860455513000e-01" rms="1.9505442678928375e-01" purity="6.2943261861801147e-01" nType="-99"/>
        </Node>
        <Node pos="r" depth="1" NCoef="0" IVar="8" Cut="-1.8334354460239410e-01" cType="1" res="1.5255454927682877e-03" rms="2.1095569431781769e-01" purity="4.6525374054908752e-01" nType="0">
          <Node pos="l" depth="2" NCoef="0" IVar="-1" Cut="0.0000000000000000e+00" cType="1" res="3.1909102201461792e-01" rms="1.7967914044857025e-01" purity="7.4553573131561279e-01" nType="-99"/>
          <Node pos="r" depth="2" NCoef="0" IVar="4" Cut="2.8108159179687500e+03" cType="1" res="-1.7713879060465842e-04" rms="2.1284046769142151e-01" purity="4.4590011239051819e-01" nType="0">
            <Node pos="l" depth="3" NCoef="0" IVar="-1" Cut="0.0000000000000000e+00" cType="1" res="-2.5531029701232910e-01" rms="2.1957620978355408e-01" purity="1.0383747518062592e-01" nType="-99"/>
            <Node pos="r" depth="3" NCoef="0" IVar="-1" Cut="0.0000000000000000e+00" cType="1" res="1.3826212845742702e-02" rms="2.1226735413074493e-01" purity="4.7096773982048035e-01" nType="-99"/>
          </Node>
        </Node>
      </Node>
    </BinaryTree>
    <BinaryTree type="DecisionTree" boostWeight="1.0000000000000000e+00" itree="22">
      <Node pos="s" depth="0" NCoef="0" IVar="4" Cut="2.9829797363281250e+03" cType="1" res="1.0692451905924827e-04" rms="2.0798063278198242e-01" purity="5.0000000000000000e-01" nType="0">
        <Node pos="l" depth="1" NCoef="0" IVar="3" Cut="8.5569801330566406e+00" cType="1" res="2.0447473973035812e-02" rms="2.3285000026226044e-01" purity="1.9794049859046936e-01" nType="0">
          <Node pos="l" depth="2" NCoef="0" IVar="-1" Cut="0.0000000000000000e+00" cType="1" res="-5.4252600669860840e-01" rms="5.2905786782503128e-02" purity="2.1141648758202791e-03" nType="-99"/>
          <Node pos="r" depth="2" NCoef="0" IVar="-1" Cut="0.0000000000000000e+00" cType="1" res="2.9836195707321167e-01" rms="3.3613881468772888e-01" purity="4.2892768979072571e-01" nType="-99"/>
        </Node>
        <Node pos="r" depth="1" NCoef="0" IVar="5" Cut="4.7576713562011719e+00" cType="1" res="-2.4247816763818264e-03" rms="2.0453238487243652e-01" purity="5.3759610652923584e-01" nType="0">
          <Node pos="l" depth="2" NCoef="0" IVar="9" Cut="6.3244950771331787e-01" cType="1" res="2.3989942856132984e-03" rms="1.8930311501026154e-01" purity="4.4537997245788574e-01" nType="0">
            <Node pos="l" depth="3" NCoef="0" IVar="-1" Cut="0.0000000000000000e+00" cType="1" res="1.8144303560256958e-01" rms="2.0493072271347046e-01" purity="7.6744186878204346e-01" nType="-99"/>
            <Node pos="r" depth="3" NCoef="0" IVar="-1" Cut="0.0000000000000000e+00" cType="1" res="-3.2796044833958149e-03" rms="1.8589663505554199e-01" purity="3.8076722621917725e-01" nType="-99"/>
          </Node>
          <Node pos="r" depth="2" NCoef="0" IVar="6" Cut="6.5727052688598633e+00" cType="1" res="-1.1773622594773769e-02" rms="2.3092256486415863e-01" purity="7.1631801128387451e-01" nType="0">
            <Node pos="l" depth="3" NCoef="0" IVar="-1" Cut="0.0000000000000000e+00" cType="1" res="-2.2665567696094513e-01" rms="2.6264989376068115e-01" purity="5.6162118911743164e-01" nType="-99"/>
            <Node pos="r" depth="3" NCoef="0" IVar="-1" Cut="0.0000000000000000e+00" cType="1" res="5.0353784114122391e-02" rms="1.9180648028850555e-01" purity="8.7468248605728149e-01" nType="-99"/>
          </Node>
        </Node>
      </Node>
    </BinaryTree>
    <BinaryTree type="DecisionTree" boostWeight="1.0000000000000000e+00" itree="23">
      <Node pos="s" depth="0" NCoef="0" IVar="5" Cut="7.0030446052551270e+00" cType="1" res="5.0722737796604633e-06" rms="2.0653644204139709e-01" purity="5.0000000000000000e-01" nType="0">
        <Node pos="l" depth="1" NCoef="0" IVar="8" Cut="1.8489351272583008e+00" cType="1" res="1.1235791025683284e-03" rms="2.0271795988082886e-01" purity="4.8773950338363647e-01" nType="0">
          <Node pos="l" depth="2" NCoef="0" IVar="8" Cut="1.6134707927703857e+00" cType="1" res="3.3344950061291456e-03" rms="2.0502631366252899e-01" purity="5.5507773160934448e-01" nType="0">
            <Node pos="l" depth="3" NCoef="0" IVar="-1" Cut="0.0000000000000000e+00" cType="1" res="8.0466577783226967e-03" rms="2.0411123335361481e-01" purity="5.8620035648345947e-01" nType="-99"/>
            <Node pos="r" depth="3" NCoef="0" IVar="-1" Cut="0.0000000000000000e+00" cType="1" res="2.2712723910808563e-01" rms="2.1019318699836731e-01" purity="3.4649682044982910e-01" nType="-99"/>
          </Node>
          <Node pos="r" depth="2" NCoef="0" IVar="1" Cut="4.6641902923583984e+00" cType="1" res="-8.3098700270056725e-03" rms="1.9227266311645508e-01" purity="2.0042343437671661e-01" nType="0">
            <Node pos="l" depth="3" NCoef="0" IVar="-1" Cut="0.0000000000000000e+00" cType="1" res="2.0387751981616020e-02" rms="1.4534257352352142e-01" purity="6.5462753176689148e-02" nType="-99"/>
            <Node pos="r" depth="3" NCoef="0" IVar="-1" Cut="0.0000000000000000e+00" cType="1" res="-1.7852364480495453e-01" rms="2.5105661153793335e-01" purity="4.2561206221580505e-01" nType="-99"/>
          </Node>
        </Node>
        <Node pos="r" depth="1" NCoef="0" IVar="-1" Cut="0.0000000000000000e+00" cType="1" res="-1.4746469259262085e-01" rms="2.6305621862411499e-01" purity="7.1131640672683716e-01" nType="-99"/>
      </Node>
    </BinaryTree>
    <BinaryTree type="DecisionTree" boostWeight="1.0000000000000000e+00" itree="24">
      <Node pos="s" depth="0" NCoef="0" IVar="1" Cut="5.6346616744995117e+00" cType="1" res="4.0267663280246779e-05" rms="2.0593041181564331e-01" purity="5.0000000000000000e-01" nType="0">
        <Node pos="l" depth="1" NCoef="0" IVar="3" Cut="9.7414598464965820e+00" cType="1" res="-3.3127686474472284e-03" rms="2.0435164868831635e-01" purity="3.3160310983657837e-01" nType="0">
          <Node pos="l" depth="2" NCoef="0" IVar="6" Cut="5.0120329856872559e+00" cType="1" res="-1.3833672273904085e-03" rms="1.9835869967937469e-01" purity="2.9501083493232727e-01" nType="0">
            <Node pos="l" depth="3" NCoef="0" IVar="-1" Cut="0.0000000000000000e+00" cType="1" res="4.3747924268245697e-02" rms="1.8280424177646637e-01" purity="1.8107371032238007e-01" nType="-99"/>
            <Node pos="r" depth="3" NCoef="0" IVar="-1" Cut="0.0000000000000000e+00" cType="1" res="-1.0524098575115204e-01" rms="2.3254860937595367e-01" purity="5.8111196756362915e-01" nType="-99"/>
          </Node>
          <Node pos="r" depth="2" NCoef="0" IVar="-1" Cut="0.0000000000000000e+00" cType="1" res="-1.9052514433860779e-01" rms="2.6287662982940674e-01" purity="7.5438594818115234e-01" nType="-99"/>
        </Node>
        <Node pos="r" depth="1" NCoef="0" IVar="4" Cut="3.8437277832031250e+03" cType="1" res="5.8578494936227798e-03" rms="2.0851333439350128e-01" purity="7.9217177629470825e-01" nType="0">
          <Node pos="l" depth="2" NCoef="0" IVar="9" Cut="1.6747391223907471e+00" cType="1" res="1.6567137092351913e-02" rms="2.4736794829368591e-01" purity="7.9248505830764771e-01" nType="0">
            <Node pos="l" depth="3" NCoef="0" IVar="-1" Cut="0.0000000000000000e+00" cType="1" res="4.5257505029439926e-02" rms="2.3326492309570312e-01" purity="8.3311259746551514e-01" nType="-99"/>
            <Node pos="r" depth="3" NCoef="0" IVar="-1" Cut="0.0000000000000000e+00" cType="1" res="2.5193235278129578e-01" rms="2.6987069845199585e-01" purity="7.1875000000000000e-01" nType="-99"/>
          </Node>
          <Node pos="r" depth="2" NCoef="0" IVar="0" Cut="7.8555717468261719e+00" cType="1" res="-1.4501775149255991e-03" rms="1.7680130898952484e-01" purity="7.9195803403854370e-01" nType="0">
            <Node pos="l" depth="3" NCoef="0" IVar="-1" Cut="0.0000000000000000e+00" cType="1" res="2.5643888115882874e-01" rms="1.7782314121723175e-01" purity="7.9911696910858154e-01" nType="-99"/>
            <Node pos="r" depth="3" NCoef="0" IVar="-1" Cut="0.0000000000000000e+00" cType="1" res="-1.0774458199739456e-01" rms="1.7598919570446014e-01" purity="7.8939032554626465e-01" nType="-99"/>
          </Node>
        </Node>
      </Node>
    </BinaryTree>
    <BinaryTree type="DecisionTree" boostWeight="1.0000000000000000e+00" itree="25">
      <Node pos="s" depth="0" NCoef="0" IVar="3" Cut="9.6734924316406250e+00" cType="1" res="2.0304264035075903e-04" rms="2.0471958816051483e-01" purity="5.0000000000000000e-01" nType="0">
        <Node pos="l" depth="1" NCoef="0" IVar="0" Cut="8.6340885162353516e+00" cType="1" res="-1.5674867900088429e-03" rms="2.0139709115028381e-01" purity="4.4151785969734192e-01" nType="0">
          <Node pos="l" depth="2" NCoef="0" IVar="3" Cut="9.0707721710205078e+00" cType="1" res="1.2719852384179831e-03" rms="1.8976208567619324e-01" purity="4.4424253702163696e-01" nType="0">
            <Node pos="l" depth="3" NCoef="0" IVar="-1" Cut="0.0000000000000000e+00" cType="1" res="-5.3799621760845184e-02" rms="1.8272018432617188e-01" purity="1.7615815997123718e-01" nType="-99"/>
            <Node pos="r" depth="3" NCoef="0" IVar="-1" Cut="0.0000000000000000e+00" cType="1" res="8.5151828825473785e-02" rms="1.9819822907447815e-01" purity="7.8528529405593872e-01" nType="-99"/>
          </Node>
          <Node pos="r" depth="2" NCoef="0" IVar="-1" Cut="0.0000000000000000e+00" cType="1" res="-1.5663373470306396e-01" rms="2.8482455015182495e-01" purity="4.1679161787033081e-01" nType="-99"/>
        </Node>
        <Node pos="r" depth="1" NCoef="0" IVar="0" Cut="8.1984310150146484e+00" cType="1" res="1.0320353321731091e-02" rms="2.2248651087284088e-01" purity="8.3418369293212891e-01" nType="0">
          <Node pos="l" depth="2" NCoef="0" IVar="-1" Cut="0.0000000000000000e+00" cType="1" res="-1.9941754639148712e-01" rms="1.6508834064006805e-01" purity="8.7104624509811401e-01" nType="-99"/>
          <Node pos="r" depth="2" NCoef="0" IVar="-1" Cut="0.0000000000000000e+00" cType="1" res="1.6631992161273956e-01" rms="2.4709373712539673e-01" purity="8.1437909603118896e-01" nType="-99"/>
        </Node>
      </Node>
    </BinaryTree>
    <BinaryTree type="DecisionTree" boostWeight="1.0000000000000000e+00" itree="26">
      <Node pos="s" depth="0" NCoef="0" IVar="6" Cut="4.4310402870178223e+00" cType="1" res="1.1463440750958398e-04" rms="2.0366105437278748e-01" purity="5.0000000000000000e-01" nType="0">
        <Node pos="l" depth="1" NCoef="0" IVar="2" Cut="-5.0390615463256836e+00" cType="1" res="-3.9086663164198399e-03" rms="1.8748378753662109e-01" purity="2.1435086429119110e-01" nType="0">
          <Node pos="l" depth="2" NCoef="0" IVar="8" Cut="2.0151978731155396e-01" cType="1" res="-1.3264519162476063e-02" rms="2.6883170008659363e-01" purity="5.3629761934280396e-01" nType="0">
            <Node pos="l" depth="3" NCoef="0" IVar="-1" Cut="0.0000000000000000e+00" cType="1" res="8.5441701114177704e-02" rms="2.4822308123111725e-01" purity="6.4182692766189575e-01" nType="-99"/>
            <Node pos="r" depth="3" NCoef="0" IVar="-1" Cut="0.0000000000000000e+00" cType="1" res="-2.0244534313678741e-01" rms="2.7962133288383484e-01" purity="4.7230321168899536e-01" nType="-99"/>
          </Node>
          <Node pos="r" depth="2" NCoef="0" IVar="1" Cut="4.3796935081481934e+00" cType="1" res="8.0562231596559286e-04" rms="1.2798206508159637e-01" purity="5.2126199007034302e-02" nType="0">
            <Node pos="l" depth="3" NCoef="0" IVar="-1" Cut="0.0000000000000000e+00" cType="1" res="-1.0632870346307755e-01" rms="9.9759630858898163e-02" purity="2.9050279408693314e-02" nType="-99"/>
            <Node pos="r" depth="3" NCoef="0" IVar="-1" Cut="0.0000000000000000e+00" cType="1" res="1.9950011372566223e-01" rms="2.1229316294193268e-01" purity="1.5617129206657410e-01" nType="-99"/>
          </Node>
        </Node>
        <Node pos="r" depth="1" NCoef="0" IVar="1" Cut="4.0242309570312500e+00" cType="1" res="2.9869235586374998e-03" rms="2.1441878378391266e-01" purity="7.0392882823944092e-01" nType="0">
          <Node pos="l" depth="2" NCoef="0" IVar="-1" Cut="0.0000000000000000e+00" cType="1" res="1.8092322349548340e-01" rms="2.1545292437076569e-01" purity="3.9409500360488892e-01" nType="-99"/>
          <Node pos="r" depth="2" NCoef="0" IVar="2" Cut="-5.5304231643676758e+00" cType="1" res="-2.9044516850262880e-04" rms="2.1405939757823944e-01" purity="7.6698017120361328e-01" nType="0">
            <Node pos="l" depth="3" NCoef="0" IVar="-1" Cut="0.0000000000000000e+00" cType="1" res="-3.9392299950122833e-02" rms="2.0383533835411072e-01" purity="8.3693271875381470e-01" nType="-99"/>
            <Node pos="r" depth="3" NCoef="0" IVar="-1" Cut="0.0000000000000000e+00" cType="1" res="1.1360536515712738e-01" rms="2.5901773571968079e-01" purity="4.1390204429626465e-01" nType="-99"/>
          </Node>
        </Node>
      </Node>
    </BinaryTree>
    <BinaryTree type="DecisionTree" boostWeight="1.0000000000000000e+00" itree="27">
      <Node pos="s" depth="0" NCoef="0" IVar="2" Cut="-5.9560542106628418e+00" cType="1" res="-6.3927829614840448e-05" rms="2.0280699431896210e-01" purity="5.0000000000000000e-01" nType="0">
        <Node pos="l" depth="1" NCoef="0" IVar="3" Cut="9.0214214324951172e+00" cType="1" res="4.6058157458901405e-03" rms="2.1444992721080780e-01" purity="8.3285874128341675e-01" nType="0">
          <Node pos="l" depth="2" NCoef="0" IVar="-1" Cut="0.0000000000000000e+00" cType="1" res="1.3833250105381012e-01" rms="2.9292374849319458e-01" purity="6.4578831195831299e-01" nType="-99"/>
          <Node pos="r" depth="2" NCoef="0" IVar="1" Cut="7.7726001739501953e+00" cType="1" res="2.0915484055876732e-03" rms="1.9973659515380859e-01" purity="8.6126601696014404e-01" nType="0">
            <Node pos="l" depth="3" NCoef="0" IVar="-1" Cut="0.0000000000000000e+00" cType="1" res="-1.3461667113006115e-02" rms="2.1155224740505219e-01" purity="8.4597063064575195e-01" nType="-99"/>
            <Node pos="r" depth="3" NCoef="0" IVar="-1" Cut="0.0000000000000000e+00" cType="1" res="2.6472496986389160e-01" rms="1.2850156426429749e-01" purity="9.3396228551864624e-01" nType="-99"/>
          </Node>
        </Node>
        <Node pos="r" depth="1" NCoef="0" IVar="6" Cut="6.1758766174316406e+00" cType="1" res="-3.8048357237130404e-03" rms="1.9289226830005646e-01" purity="2.3334853351116180e-01" nType="0">
          <Node pos="l" depth="2" NCoef="0" IVar="0" Cut="8.3454627990722656e+00" cType="1" res="-1.7535022925585508e-03" rms="1.8645934760570526e-01" purity="2.0588235557079315e-01" nType="0">
            <Node pos="l" depth="3" NCoef="0" IVar="-1" Cut="0.0000000000000000e+00" cType="1" res="-1.0760644823312759e-01" rms="1.6284176707267761e-01" purity="1.7577855288982391e-01" nType="-99"/>
            <Node pos="r" depth="3" NCoef="0" IVar="-1" Cut="0.0000000000000000e+00" cType="1" res="8.3355814218521118e-02" rms="2.3767539858818054e-01" purity="2.8584557771682739e-01" nType="-99"/>
          </Node>
          <Node pos="r" depth="2" NCoef="0" IVar="-1" Cut="0.0000000000000000e+00" cType="1" res="-1.7105533182621002e-01" rms="2.4631837010383606e-01" purity="5.0246304273605347e-01" nType="-99"/>
        </Node>
      </Node>
    </BinaryTree>
    <BinaryTree type="DecisionTree" boostWeight="1.0000000000000000e+00" itree="28">
      <Node pos="s" depth="0" NCoef="0" IVar="6" Cut="7.9219708442687988e+00" cType="1" res="9.6535979537293315e-05" rms="2.0223636925220490e-01" purity="5.0000000000000000e-01" nType="0">
        <Node pos="l" depth="1" NCoef="0" IVar="6" Cut="6.9987077713012695e+00" cType="1" res="1.1373845627531409e-03" rms="2.0154313743114471e-01" purity="4.7072502970695496e-01" nType="0">
          <Node pos="l" depth="2" NCoef="0" IVar="5" Cut="6.1117162704467773e+00" cType="1" res="-1.5623119543306530e-04" rms="2.0321646332740784e-01" purity="4.2802742123603821e-01" nType="0">
            <Node pos="l" depth="3" NCoef="0" IVar="-1" Cut="0.0000000000000000e+00" cType="1" res="1.6288556158542633e-02" rms="1.9504845142364502e-01" purity="4.1898983716964722e-01" nType="-99"/>
            <Node pos="r" depth="3" NCoef="0" IVar="-1" Cut="0.0000000000000000e+00" cType="1" res="-1.3825333118438721e-01" rms="2.8875780105590820e-01" purity="5.4603856801986694e-01" nType="-99"/>
          </Node>
          <Node pos="r" depth="2" NCoef="0" IVar="-1" Cut="0.0000000000000000e+00" cType="1" res="1.4221139252185822e-01" rms="1.8575949966907501e-01" purity="8.4697985649108887e-01" nType="-99"/>
        </Node>
        <Node pos="r" depth="1" NCoef="0" IVar="-1" Cut="0.0000000000000000e+00" cType="1" res="-1.7128272354602814e-01" rms="2.1025973558425903e-01" purity="8.6518770456314087e-01" nType="-99"/>
      </Node>
    </BinaryTree>
    <BinaryTree type="DecisionTree" boostWeight="1.0000000000000000e+00" itree="29">
      <Node pos="s" depth="0" NCoef="0" IVar="5" Cut="4.9335870742797852e+00" cType="1" res="1.0721679427661002e-04" rms="2.0209722220897675e-01" purity="5.0000000000000000e-01" nType="0">
        <Node pos="l" depth="1" NCoef="0" IVar="4" Cut="3.1649943847656250e+03" cType="1" res="-2.2286088205873966e-03" rms="1.8515893816947937e-01" purity="4.1758447885513306e-01" nType="0">
          <Node pos="l" depth="2" NCoef="0" IVar="7" Cut="3.5473518371582031e+00" cType="1" res="-1.5968769788742065e-02" rms="1.8650172650814056e-01" purity="8.9420653879642487e-02" nType="0">
            <Node pos="l" depth="3" NCoef="0" IVar="-1" Cut="0.0000000000000000e+00" cType="1" res="7.7689856290817261e-02" rms="1.0473056882619858e-01" purity="3.0379746109247208e-02" nType="-99"/>
            <Node pos="r" depth="3" NCoef="0" IVar="-1" Cut="0.0000000000000000e+00" cType="1" res="-3.9060419797897339e-01" rms="2.4027781188488007e-01" purity="1.4786967635154724e-01" nType="-99"/>
          </Node>
          <Node pos="r" depth="2" NCoef="0" IVar="0" Cut="8.5890989303588867e+00" cType="1" res="1.6229355242103338e-04" rms="1.8481998145580292e-01" purity="4.7468769550323486e-01" nType="0">
            <Node pos="l" depth="3" NCoef="0" IVar="-1" Cut="0.0000000000000000e+00" cType="1" res="4.2348839342594147e-02" rms="1.7389866709709167e-01" purity="4.6812248229980469e-01" nType="-99"/>
            <Node pos="r" depth="3" NCoef="0" IVar="-1" Cut="0.0000000000000000e+00" cType="1" res="-1.3591946661472321e-01" rms="2.4638883769512177e-01" purity="5.1986181735992432e-01" nType="-99"/>
          </Node>
        </Node>
        <Node pos="r" depth="1" NCoef="0" IVar="4" Cut="3.2508715820312500e+03" cType="1" res="5.0355419516563416e-03" rms="2.3376737534999847e-01" purity="6.7388737201690674e-01" nType="0">
          <Node pos="l" depth="2" NCoef="0" IVar="-1" Cut="0.0000000000000000e+00" cType="1" res="1.7342957854270935e-01" rms="2.7361986041069031e-01" purity="4.6947672963142395e-01" nType="-99"/>
          <Node pos="r" depth="2" NCoef="0" IVar="7" Cut="6.7113533020019531e+00" cType="1" res="-2.1627787500619888e-03" rms="2.1665671467781067e-01" purity="7.4986493587493896e-01" nType="0">
            <Node pos="l" depth="3" NCoef="0" IVar="-1" Cut="0.0000000000000000e+00" cType="1" res="-1.5123875439167023e-01" rms="2.3711802065372467e-01" purity="6.3168722391128540e-01" nType="-99"/>
            <Node pos="r" depth="3" NCoef="0" IVar="-1" Cut="0.0000000000000000e+00" cType="1" res="1.5206499397754669e-01" rms="1.9042228162288666e-01" purity="8.8054609298706055e-01" nType="-99"/>
          </Node>
        </Node>
      </Node>
    </BinaryTree>
    <BinaryTree type="DecisionTree" boostWeight="1.0000000000000000e+00" itree="30">
      <Node pos="s" depth="0" NCoef="0" IVar="7" Cut="7.3431797027587891e+00" cType="1" res="7.1010093961376697e-05" rms="2.0047120749950409e-01" purity="5.0000000000000000e-01" nType="0">
        <Node pos="l" depth="1" NCoef="0" IVar="4" Cut="3.5640334472656250e+03" cType="1" res="1.8294183537364006e-03" rms="2.0173649489879608e-01" purity="4.5338678359985352e-01" nType="0">
          <Node pos="l" depth="2" NCoef="0" IVar="0" Cut="8.0455331802368164e+00" cType="1" res="7.6810978353023529e-03" rms="2.1823213994503021e-01" purity="3.2944488525390625e-01" nType="0">
            <Node pos="l" depth="3" NCoef="0" IVar="-1" Cut="0.0000000000000000e+00" cType="1" res="-2.7729859948158264e-01" rms="1.5861316025257111e-01" purity="1.5411764383316040e-01" nType="-99"/>
            <Node pos="r" depth="3" NCoef="0" IVar="-1" Cut="0.0000000000000000e+00" cType="1" res="1.4441479742527008e-01" rms="2.4294874072074890e-01" purity="4.2053788900375366e-01" nType="-99"/>
          </Node>
          <Node pos="r" depth="2" NCoef="0" IVar="8" Cut="6.9446065463125706e-03" cType="1" res="-1.4054661151021719e-03" rms="1.9193363189697266e-01" purity="5.2190351486206055e-01" nType="0">
            <Node pos="l" depth="3" NCoef="0" IVar="-1" Cut="0.0000000000000000e+00" cType="1" res="-2.5364094972610474e-01" rms="1.8114756047725677e-01" purity="7.5074774026870728e-01" nType="-99"/>
            <Node pos="r" depth="3" NCoef="0" IVar="-1" Cut="0.0000000000000000e+00" cType="1" res="3.6283567547798157e-02" rms="1.9469352066516876e-01" purity="4.5621064305305481e-01" nType="-99"/>
          </Node>
        </Node>
        <Node pos="r" depth="1" NCoef="0" IVar="3" Cut="9.4528760910034180e+00" cType="1" res="-1.3378020375967026e-02" rms="1.8997856974601746e-01" purity="8.5651695728302002e-01" nType="0">
          <Node pos="l" depth="2" NCoef="0" IVar="-1" Cut="0.0000000000000000e+00" cType="1" res="-3.4110581874847412e-01" rms="2.3182117938995361e-01" purity="8.0227273702621460e-01" nType="-99"/>
          <Node pos="r" depth="2" NCoef="0" IVar="-1" Cut="0.0000000000000000e+00" cType="1" res="4.0291439741849899e-02" rms="1.3833659887313843e-01" purity="9.0697675943374634e-01" nType="-99"/>
        </Node>
      </Node>
    </BinaryTree>
    <BinaryTree type="DecisionTree" boostWeight="1.0000000000000000e+00" itree="31">
      <Node pos="s" depth="0" NCoef="0" IVar="8" Cut="1.0078318119049072e+00" cType="1" res="3.4760395647026598e-04" rms="1.9844143092632294e-01" purity="5.0000000000000000e-01" nType="0">
        <Node pos="l" depth="1" NCoef="0" IVar="0" Cut="7.8973999023437500e+00" cType="1" res="5.7430001907050610e-03" rms="1.9526135921478271e-01" purity="6.7524802684783936e-01" nType="0">
          <Node pos="l" depth="2" NCoef="0" IVar="7" Cut="5.3387026786804199e+00" cType="1" res="1.8400229513645172e-02" rms="1.5935119986534119e-01" purity="6.1280167102813721e-01" nType="0">
            <Node pos="l" depth="3" NCoef="0" IVar="-1" Cut="0.0000000000000000e+00" cType="1" res="4.6537545323371887e-01" rms="1.7442522943019867e-01" purity="4.0690979361534119e-01" nType="-99"/>
            <Node pos="r" depth="3" NCoef="0" IVar="-1" Cut="0.0000000000000000e+00" cType="1" res="1.2149525433778763e-01" rms="1.3811494410037994e-01" purity="8.6111110448837280e-01" nType="-99"/>
          </Node>
          <Node pos="r" depth="2" NCoef="0" IVar="3" Cut="9.0506315231323242e+00" cType="1" res="1.3977768830955029e-03" rms="2.0597271621227264e-01" purity="6.9668585062026978e-01" nType="0">
            <Node pos="l" depth="3" NCoef="0" IVar="-1" Cut="0.0000000000000000e+00" cType="1" res="-1.4443954825401306e-01" rms="2.0819836854934692e-01" purity="2.9761904478073120e-01" nType="-99"/>
            <Node pos="r" depth="3" NCoef="0" IVar="-1" Cut="0.0000000000000000e+00" cType="1" res="8.0395832657814026e-02" rms="2.0481656491756439e-01" purity="8.4603959321975708e-01" nType="-99"/>
          </Node>
        </Node>
        <Node pos="r" depth="1" NCoef="0" IVar="0" Cut="8.7075595855712891e+00" cType="1" res="-4.4806734658777714e-03" rms="2.0112197101116180e-01" purity="3.4317255020141602e-01" nType="0">
          <Node pos="l" depth="2" NCoef="0" IVar="7" Cut="5.5067663192749023e+00" cType="1" res="-1.4136629179120064e-03" rms="1.8688924610614777e-01" purity="3.3405521512031555e-01" nType="0">
            <Node pos="l" depth="3" NCoef="0" IVar="-1" Cut="0.0000000000000000e+00" cType="1" res="-1.2015244364738464e-01" rms="1.7736031115055084e-01" purity="1.8837827444076538e-01" nType="-99"/>
            <Node pos="r" depth="3" NCoef="0" IVar="-1" Cut="0.0000000000000000e+00" cType="1" res="1.2557815015316010e-01" rms="2.0793014764785767e-01" purity="6.9557023048400879e-01" nType="-99"/>
          </Node>
          <Node pos="r" depth="2" NCoef="0" IVar="-1" Cut="0.0000000000000000e+00" cType="1" res="-1.6261743009090424e-01" rms="2.8797867894172668e-01" purity="4.1437631845474243e-01" nType="-99"/>
        </Node>
      </Node>
    </BinaryTree>
    <BinaryTree type="DecisionTree" boostWeight="1.0000000000000000e+00" itree="32">
      <Node pos="s" depth="0" NCoef="0" IVar="8" Cut="2.0592110157012939e+00" cType="1" res="1.0719791316660121e-04" rms="1.9681969285011292e-01" purity="5.0000000000000000e-01" nType="0">
        <Node pos="l" depth="1" NCoef="0" IVar="3" Cut="9.8094263076782227e+00" cType="1" res="-8.1286468775942922e-04" rms="1.9620335102081299e-01" purity="5.2528434991836548e-01" nType="0">
          <Node pos="l" depth="2" NCoef="0" IVar="4" Cut="4.0355476074218750e+03" cType="1" res="4.5475340448319912e-04" rms="1.9221262633800507e-01" purity="4.8984232544898987e-01" nType="0">
            <Node pos="l" depth="3" NCoef="0" IVar="-1" Cut="0.0000000000000000e+00" cType="1" res="6.1377778649330139e-02" rms="2.0096082985401154e-01" purity="4.7760042548179626e-01" nType="-99"/>
            <Node pos="r" depth="3" NCoef="0" IVar="-1" Cut="0.0000000000000000e+00" cType="1" res="-9.6020698547363281e-02" rms="1.7869478464126587e-01" purity="5.0737464427947998e-01" nType="-99"/>
          </Node>
          <Node pos="r" depth="2" NCoef="0" IVar="-1" Cut="0.0000000000000000e+00" cType="1" res="-1.3158164918422699e-01" rms="2.3005114495754242e-01" purity="8.5877317190170288e-01" nType="-99"/>
        </Node>
        <Node pos="r" depth="1" NCoef="0" IVar="-1" Cut="0.0000000000000000e+00" cType="1" res="1.4151372015476227e-01" rms="2.0384550094604492e-01" purity="1.9198665022850037e-01" nType="-99"/>
      </Node>
    </BinaryTree>
    <BinaryTree type="DecisionTree" boostWeight="1.0000000000000000e+00" itree="33">
      <Node pos="s" depth="0" NCoef="0" IVar="5" Cut="5.4907484054565430e+00" cType="1" res="4.7579953388776630e-05" rms="1.9603681564331055e-01" purity="5.0000000000000000e-01" nType="0">
        <Node pos="l" depth="1" NCoef="0" IVar="1" Cut="3.7654101848602295e+00" cType="1" res="2.8306776657700539e-03" rms="1.8418292701244354e-01" purity="4.4431725144386292e-01" nType="0">
          <Node pos="l" depth="2" NCoef="0" IVar="2" Cut="-5.0208082199096680e+00" cType="1" res="-5.1251179538667202e-03" rms="1.4860983192920685e-01" purity="1.3935886323451996e-01" nType="0">
            <Node pos="l" depth="3" NCoef="0" IVar="-1" Cut="0.0000000000000000e+00" cType="1" res="-1.4369830489158630e-01" rms="2.3899598419666290e-01" purity="4.6863469481468201e-01" nType="-99"/>
            <Node pos="r" depth="3" NCoef="0" IVar="-1" Cut="0.0000000000000000e+00" cType="1" res="-3.9396006613969803e-02" rms="1.0426394641399384e-01" purity="3.4624412655830383e-02" nType="-99"/>
          </Node>
          <Node pos="r" depth="2" NCoef="0" IVar="2" Cut="-5.1684870719909668e+00" cType="1" res="7.4491105042397976e-03" rms="2.0183569192886353e-01" purity="6.2134921550750732e-01" nType="0">
            <Node pos="l" depth="3" NCoef="0" IVar="-1" Cut="0.0000000000000000e+00" cType="1" res="1.1817813664674759e-01" rms="2.0167276263237000e-01" purity="7.8612101078033447e-01" nType="-99"/>
            <Node pos="r" depth="3" NCoef="0" IVar="-1" Cut="0.0000000000000000e+00" cType="1" res="-1.4665955677628517e-02" rms="2.0200653374195099e-01" purity="1.8413597345352173e-01" nType="-99"/>
          </Node>
        </Node>
        <Node pos="r" depth="1" NCoef="0" IVar="2" Cut="-6.5833740234375000e+00" cType="1" res="-9.5080872997641563e-03" rms="2.3192116618156433e-01" purity="6.9118469953536987e-01" nType="0">
          <Node pos="l" depth="2" NCoef="0" IVar="3" Cut="9.4783821105957031e+00" cType="1" res="1.9269885960966349e-03" rms="2.0881778001785278e-01" purity="8.8842976093292236e-01" nType="0">
            <Node pos="l" depth="3" NCoef="0" IVar="-1" Cut="0.0000000000000000e+00" cType="1" res="-1.2038996815681458e-01" rms="2.2884812951087952e-01" purity="8.5880076885223389e-01" nType="-99"/>
            <Node pos="r" depth="3" NCoef="0" IVar="-1" Cut="0.0000000000000000e+00" cType="1" res="2.3323830962181091e-01" rms="1.8192432820796967e-01" purity="9.2239469289779663e-01" nType="-99"/>
          </Node>
          <Node pos="r" depth="2" NCoef="0" IVar="0" Cut="8.2479305267333984e+00" cType="1" res="-2.3123281076550484e-02" rms="2.5606688857078552e-01" purity="4.5633456110954285e-01" nType="0">
            <Node pos="l" depth="3" NCoef="0" IVar="-1" Cut="0.0000000000000000e+00" cType="1" res="-1.0145970433950424e-01" rms="2.1468876302242279e-01" purity="4.2424243688583374e-01" nType="-99"/>
            <Node pos="r" depth="3" NCoef="0" IVar="-1" Cut="0.0000000000000000e+00" cType="1" res="-2.0437699556350708e-01" rms="2.8931340575218201e-01" purity="4.8681056499481201e-01" nType="-99"/>
          </Node>
        </Node>
      </Node>
    </BinaryTree>
    <BinaryTree type="DecisionTree" boostWeight="1.0000000000000000e+00" itree="34">
      <Node pos="s" depth="0" NCoef="0" IVar="0" Cut="8.9675111770629883e+00" cType="1" res="2.2227573208510876e-04" rms="1.9548349082469940e-01" purity="5.0000000000000000e-01" nType="0">
        <Node pos="l" depth="1" NCoef="0" IVar="5" Cut="4.9335870742797852e+00" cType="1" res="1.1172132799401879e-03" rms="1.8404909968376160e-01" purity="5.0033366680145264e-01" nType="0">
          <Node pos="l" depth="2" NCoef="0" IVar="5" Cut="3.3983035087585449e+00" cType="1" res="-1.3943201629444957e-03" rms="1.6906327009201050e-01" purity="4.1644048690795898e-01" nType="0">
            <Node pos="l" depth="3" NCoef="0" IVar="-1" Cut="0.0000000000000000e+00" cType="1" res="7.4350684881210327e-02" rms="1.5888781845569611e-01" purity="3.8340541720390320e-01" nType="-99"/>
            <Node pos="r" depth="3" NCoef="0" IVar="-1" Cut="0.0000000000000000e+00" cType="1" res="-1.0522019118070602e-01" rms="1.7820836603641510e-01" purity="4.4856595993041992e-01" nType="-99"/>
          </Node>
          <Node pos="r" depth="2" NCoef="0" IVar="7" Cut="5.5509409904479980e+00" cType="1" res="6.6651748493313789e-03" rms="2.1335098147392273e-01" purity="6.8565309047698975e-01" nType="0">
            <Node pos="l" depth="3" NCoef="0" IVar="-1" Cut="0.0000000000000000e+00" cType="1" res="1.9723400473594666e-01" rms="2.2586016356945038e-01" purity="4.4999998807907104e-01" nType="-99"/>
            <Node pos="r" depth="3" NCoef="0" IVar="-1" Cut="0.0000000000000000e+00" cType="1" res="-4.0994798764586449e-03" rms="2.0667892694473267e-01" purity="7.9936510324478149e-01" nType="-99"/>
          </Node>
        </Node>
        <Node pos="r" depth="1" NCoef="0" IVar="-1" Cut="0.0000000000000000e+00" cType="1" res="-7.4383012950420380e-02" rms="3.4439915418624878e-01" purity="4.9379652738571167e-01" nType="-99"/>
      </Node>
    </BinaryTree>
    <BinaryTree type="DecisionTree" boostWeight="1.0000000000000000e+00" itree="35">
      <Node pos="s" depth="0" NCoef="0" IVar="4" Cut="2.8968979492187500e+03" cType="1" res="2.9175669624237344e-05" rms="1.9492523372173309e-01" purity="5.0000000000000000e-01" nType="0">
        <Node pos="l" depth="1" NCoef="0" IVar="-1" Cut="0.0000000000000000e+00" cType="1" res="-1.2910550832748413e-01" rms="2.0804643630981445e-01" purity="1.5680474042892456e-01" nType="-99"/>
        <Node pos="r" depth="1" NCoef="0" IVar="0" Cut="8.8753566741943359e+00" cType="1" res="9.4952312065288424e-04" rms="1.9362565875053406e-01" purity="5.3213298320770264e-01" nType="0">
          <Node pos="l" depth="2" NCoef="0" IVar="4" Cut="5.0387397460937500e+03" cType="1" res="-4.5083614531904459e-04" rms="1.8200723826885223e-01" purity="5.2984851598739624e-01" nType="0">
            <Node pos="l" depth="3" NCoef="0" IVar="-1" Cut="0.0000000000000000e+00" cType="1" res="1.1989331804215908e-02" rms="1.8040160834789276e-01" purity="5.7152134180068970e-01" nType="-99"/>
            <Node pos="r" depth="3" NCoef="0" IVar="-1" Cut="0.0000000000000000e+00" cType="1" res="-1.6195207834243774e-01" rms="1.9783824682235718e-01" purity="8.3478264510631561e-02" nType="-99"/>
          </Node>
          <Node pos="r" depth="2" NCoef="0" IVar="-1" Cut="0.0000000000000000e+00" cType="1" res="1.0342115163803101e-01" rms="3.1234320998191833e-01" purity="5.6378602981567383e-01" nType="-99"/>
        </Node>
      </Node>
    </BinaryTree>
    <BinaryTree type="DecisionTree" boostWeight="1.0000000000000000e+00" itree="36">
      <Node pos="s" depth="0" NCoef="0" IVar="4" Cut="4.8767841796875000e+03" cType="1" res="-6.1025886679999530e-05" rms="1.9445206224918365e-01" purity="5.0000000000000000e-01" nType="0">
        <Node pos="l" depth="1" NCoef="0" IVar="0" Cut="8.2302694320678711e+00" cType="1" res="-1.3234706129878759e-03" rms="1.9252626597881317e-01" purity="5.4077190160751343e-01" nType="0">
          <Node pos="l" depth="2" NCoef="0" IVar="7" Cut="3.0288968086242676e+00" cType="1" res="3.2345124054700136e-03" rms="1.5909391641616821e-01" purity="5.2385812997817993e-01" nType="0">
            <Node pos="l" depth="3" NCoef="0" IVar="-1" Cut="0.0000000000000000e+00" cType="1" res="-5.6324434280395508e-01" rms="9.4554491341114044e-02" purity="6.4965195953845978e-02" nType="-99"/>
            <Node pos="r" depth="3" NCoef="0" IVar="-1" Cut="0.0000000000000000e+00" cType="1" res="9.3804277479648590e-02" rms="1.6518519818782806e-01" purity="5.8056193590164185e-01" nType="-99"/>
          </Node>
          <Node pos="r" depth="2" NCoef="0" IVar="3" Cut="9.2681207656860352e+00" cType="1" res="-6.8951286375522614e-03" rms="2.2667108476161957e-01" purity="5.6144726276397705e-01" nType="0">
            <Node pos="l" depth="3" NCoef="0" IVar="-1" Cut="0.0000000000000000e+00" cType="1" res="-1.7449952661991119e-01" rms="2.2449482977390289e-01" purity="2.9364004731178284e-01" nType="-99"/>
            <Node pos="r" depth="3" NCoef="0" IVar="-1" Cut="0.0000000000000000e+00" cType="1" res="2.3492055013775826e-02" rms="2.2807553410530090e-01" purity="7.9050928354263306e-01" nType="-99"/>
          </Node>
        </Node>
        <Node pos="r" depth="1" NCoef="0" IVar="-1" Cut="0.0000000000000000e+00" cType="1" res="1.3908271491527557e-01" rms="2.1106329560279846e-01" purity="1.2321659922599792e-01" nType="-99"/>
      </Node>
    </BinaryTree>
    <BinaryTree type="DecisionTree" boostWeight="1.0000000000000000e+00" itree="37">
      <Node pos="s" depth="0" NCoef="0" IVar="0" Cut="8.9675111770629883e+00" cType="1" res="-1.3088285049889237e-04" rms="1.9342443346977234e-01" purity="5.0000000000000000e-01" nType="0">
        <Node pos="l" depth="1" NCoef="0" IVar="4" Cut="4.4894150390625000e+03" cType="1" res="9.5305964350700378e-04" rms="1.8198151886463165e-01" purity="5.0033366680145264e-01" nType="0">
          <Node pos="l" depth="2" NCoef="0" IVar="2" Cut="-4.2967710494995117e+00" cType="1" res="3.6953568924218416e-03" rms="1.7995271086692810e-01" purity="5.4084074497222900e-01" nType="0">
            <Node pos="l" depth="3" NCoef="0" IVar="-1" Cut="0.0000000000000000e+00" cType="1" res="7.5453460216522217e-02" rms="2.0268365740776062e-01" purity="7.3308444023132324e-01" nType="-99"/>
            <Node pos="r" depth="3" NCoef="0" IVar="-1" Cut="0.0000000000000000e+00" cType="1" res="-2.6654922962188721e-01" rms="9.2099584639072418e-02" purity="1.4687101356685162e-02" nType="-99"/>
          </Node>
          <Node pos="r" depth="2" NCoef="0" IVar="1" Cut="6.2267270088195801e+00" cType="1" res="-8.8262967765331268e-03" rms="1.8871514499187469e-01" purity="3.5588055849075317e-01" nType="0">
            <Node pos="l" depth="3" NCoef="0" IVar="-1" Cut="0.0000000000000000e+00" cType="1" res="-6.3116219826042652e-03" rms="1.9117829203605652e-01" purity="2.5949877500534058e-01" nType="-99"/>
            <Node pos="r" depth="3" NCoef="0" IVar="-1" Cut="0.0000000000000000e+00" cType="1" res="-4.5155122876167297e-01" rms="1.7857055366039276e-01" purity="6.5099012851715088e-01" nType="-99"/>
          </Node>
        </Node>
        <Node pos="r" depth="1" NCoef="0" IVar="-1" Cut="0.0000000000000000e+00" cType="1" res="-9.3361809849739075e-02" rms="3.4184184670448303e-01" purity="4.9379652738571167e-01" nType="-99"/>
      </Node>
    </BinaryTree>
    <BinaryTree type="DecisionTree" boostWeight="1.0000000000000000e+00" itree="38">
      <Node pos="s" depth="0" NCoef="0" IVar="0" Cut="7.9192447662353516e+00" cType="1" res="-1.1510221520438790e-04" rms="1.9232004880905151e-01" purity="5.0000000000000000e-01" nType="0">
        <Node pos="l" depth="1" NCoef="0" IVar="2" Cut="-6.5975389480590820e+00" cType="1" res="-4.7764885239303112e-03" rms="1.5711189806461334e-01" purity="4.1494506597518921e-01" nType="0">
          <Node pos="l" depth="2" NCoef="0" IVar="-1" Cut="0.0000000000000000e+00" cType="1" res="2.6318895816802979e-01" rms="1.3426865637302399e-01" purity="9.0374332666397095e-01" nType="-99"/>
          <Node pos="r" depth="2" NCoef="0" IVar="3" Cut="8.9938192367553711e+00" cType="1" res="-1.0363559238612652e-02" rms="1.6351185739040375e-01" purity="2.5495916604995728e-01" nType="0">
            <Node pos="l" depth="3" NCoef="0" IVar="-1" Cut="0.0000000000000000e+00" cType="1" res="6.2926501035690308e-02" rms="1.3427568972110748e-01" purity="8.4864392876625061e-02" nType="-99"/>
            <Node pos="r" depth="3" NCoef="0" IVar="-1" Cut="0.0000000000000000e+00" cType="1" res="-3.9359822869300842e-01" rms="2.0793133974075317e-01" purity="5.9544658660888672e-01" nType="-99"/>
          </Node>
        </Node>
        <Node pos="r" depth="1" NCoef="0" IVar="6" Cut="5.8354153633117676e+00" cType="1" res="1.7715111607685685e-03" rms="2.0482677221298218e-01" purity="5.3442448377609253e-01" nType="0">
          <Node pos="l" depth="2" NCoef="0" IVar="4" Cut="3.1993452148437500e+03" cType="1" res="5.5595808662474155e-03" rms="2.0588567852973938e-01" purity="3.8301369547843933e-01" nType="0">
            <Node pos="l" depth="3" NCoef="0" IVar="-1" Cut="0.0000000000000000e+00" cType="1" res="2.0664846897125244e-01" rms="2.3366709053516388e-01" purity="2.1863798797130585e-01" nType="-99"/>
            <Node pos="r" depth="3" NCoef="0" IVar="-1" Cut="0.0000000000000000e+00" cType="1" res="2.2494798526167870e-02" rms="1.9672232866287231e-01" purity="4.3192321062088013e-01" nType="-99"/>
          </Node>
          <Node pos="r" depth="2" NCoef="0" IVar="0" Cut="8.3704481124877930e+00" cType="1" res="-5.2434327080845833e-03" rms="2.0266436040401459e-01" purity="8.1481480598449707e-01" nType="0">
            <Node pos="l" depth="3" NCoef="0" IVar="-1" Cut="0.0000000000000000e+00" cType="1" res="8.1092879176139832e-02" rms="1.6180069744586945e-01" purity="8.6162906885147095e-01" nType="-99"/>
            <Node pos="r" depth="3" NCoef="0" IVar="-1" Cut="0.0000000000000000e+00" cType="1" res="-1.3810469210147858e-01" rms="2.3828071355819702e-01" purity="7.6470589637756348e-01" nType="-99"/>
          </Node>
        </Node>
      </Node>
    </BinaryTree>
    <BinaryTree type="DecisionTree" boostWeight="1.0000000000000000e+00" itree="39">
      <Node pos="s" depth="0" NCoef="0" IVar="4" Cut="4.4463740234375000e+03" cType="1" res="2.5509647093713284e-04" rms="1.9106441736221313e-01" purity="5.0000000000000000e-01" nType="0">
        <Node pos="l" depth="1" NCoef="0" IVar="9" Cut="6.3689392805099487e-01" cType="1" res="-1.9112747395411134e-03" rms="1.9033887982368469e-01" purity="5.3427350521087646e-01" nType="0">
          <Node pos="l" depth="2" NCoef="0" IVar="4" Cut="3.8206503906250000e+03" cType="1" res="-9.6792085096240044e-03" rms="1.9993765652179718e-01" purity="7.6071137189865112e-01" nType="0">
            <Node pos="l" depth="3" NCoef="0" IVar="-1" Cut="0.0000000000000000e+00" cType="1" res="-2.2361865639686584e-01" rms="2.3276114463806152e-01" purity="6.2688821554183960e-01" nType="-99"/>
            <Node pos="r" depth="3" NCoef="0" IVar="-1" Cut="0.0000000000000000e+00" cType="1" res="9.9181972444057465e-02" rms="1.5231260657310486e-01" purity="9.1478258371353149e-01" nType="-99"/>
          </Node>
          <Node pos="r" depth="2" NCoef="0" IVar="9" Cut="1.4714394807815552e+00" cType="1" res="6.5465348598081619e-05" rms="1.8776667118072510e-01" purity="4.7665089368820190e-01" nType="0">
            <Node pos="l" depth="3" NCoef="0" IVar="-1" Cut="0.0000000000000000e+00" cType="1" res="9.4731196761131287e-02" rms="1.9176270067691803e-01" purity="7.3738110065460205e-01" nType="-99"/>
            <Node pos="r" depth="3" NCoef="0" IVar="-1" Cut="0.0000000000000000e+00" cType="1" res="-4.3689779937267303e-02" rms="1.8607570230960846e-01" purity="3.7464225292205811e-01" nType="-99"/>
          </Node>
        </Node>
        <Node pos="r" depth="1" NCoef="0" IVar="3" Cut="8.9231185913085938e+00" cType="1" res="7.6024443842470646e-03" rms="1.9332413375377655e-01" purity="3.8375973701477051e-01" nType="0">
          <Node pos="l" depth="2" NCoef="0" IVar="-1" Cut="0.0000000000000000e+00" cType="1" res="-3.6219152808189392e-01" rms="1.1454384028911591e-01" purity="2.1645022556185722e-02" nType="-99"/>
          <Node pos="r" depth="2" NCoef="0" IVar="9" Cut="1.8883428573608398e+00" cType="1" res="1.3732059858739376e-02" rms="2.1357718110084534e-01" purity="5.0898206233978271e-01" nType="0">
            <Node pos="l" depth="3" NCoef="0" IVar="-1" Cut="0.0000000000000000e+00" cType="1" res="2.2454307973384857e-01" rms="2.3021003603935242e-01" purity="6.6360050439834595e-01" nType="-99"/>
            <Node pos="r" depth="3" NCoef="0" IVar="-1" Cut="0.0000000000000000e+00" cType="1" res="5.1933941431343555e-03" rms="1.8850822746753693e-01" purity="3.0434781312942505e-01" nType="-99"/>
          </Node>
        </Node>
      </Node>
    </BinaryTree>
    <BinaryTree type="DecisionTree" boostWeight="1.0000000000000000e+00" itree="40">
      <Node pos="s" depth="0" NCoef="0" IVar="8" Cut="1.1129697561264038e+00" cType="1" res="3.1297895475290716e-05" rms="1.9029740989208221e-01" purity="5.0000000000000000e-01" nType="0">
        <Node pos="l" depth="1" NCoef="0" IVar="4" Cut="3.6860371093750000e+03" cType="1" res="-3.3988889772444963e-03" rms="1.8689024448394775e-01" purity="6.6316050291061401e-01" nType="0">
          <Node pos="l" depth="2" NCoef="0" IVar="5" Cut="5.8896346092224121e+00" cType="1" res="4.8569482751190662e-03" rms="2.0670917630195618e-01" purity="5.7219612598419189e-01" nType="0">
            <Node pos="l" depth="3" NCoef="0" IVar="-1" Cut="0.0000000000000000e+00" cType="1" res="-2.1316304802894592e-02" rms="2.0718444883823395e-01" purity="4.6761906147003174e-01" nType="-99"/>
            <Node pos="r" depth="3" NCoef="0" IVar="-1" Cut="0.0000000000000000e+00" cType="1" res="1.9078300893306732e-01" rms="2.0466493070125580e-01" purity="8.2232344150543213e-01" nType="-99"/>
          </Node>
          <Node pos="r" depth="2" NCoef="0" IVar="0" Cut="8.4845418930053711e+00" cType="1" res="-8.3082104101777077e-03" rms="1.7385236918926239e-01" purity="7.1725237369537354e-01" nType="0">
            <Node pos="l" depth="3" NCoef="0" IVar="-1" Cut="0.0000000000000000e+00" cType="1" res="-6.3793942332267761e-02" rms="1.5564867854118347e-01" purity="7.2337347269058228e-01" nType="-99"/>
            <Node pos="r" depth="3" NCoef="0" IVar="-1" Cut="0.0000000000000000e+00" cType="1" res="-2.8789520263671875e-01" rms="2.4214278161525726e-01" purity="6.8764567375183105e-01" nType="-99"/>
          </Node>
        </Node>
        <Node pos="r" depth="1" NCoef="0" IVar="0" Cut="8.2587280273437500e+00" cType="1" res="3.5405820235610008e-03" rms="1.9365826249122620e-01" purity="3.3307713270187378e-01" nType="0">
          <Node pos="l" depth="2" NCoef="0" IVar="2" Cut="-5.6108236312866211e+00" cType="1" res="-2.5360619183629751e-03" rms="1.6320697963237762e-01" purity="2.9495203495025635e-01" nType="0">
            <Node pos="l" depth="3" NCoef="0" IVar="-1" Cut="0.0000000000000000e+00" cType="1" res="-2.0507657527923584e-01" rms="2.1716082096099854e-01" purity="7.2919815778732300e-01" nType="-99"/>
            <Node pos="r" depth="3" NCoef="0" IVar="-1" Cut="0.0000000000000000e+00" cType="1" res="6.6915921866893768e-02" rms="1.3677978515625000e-01" purity="1.2960828840732574e-01" nType="-99"/>
          </Node>
          <Node pos="r" depth="2" NCoef="0" IVar="9" Cut="1.2983372211456299e+00" cType="1" res="1.3212372548878193e-02" rms="2.3376803100109100e-01" purity="3.9375829696655273e-01" nType="0">
            <Node pos="l" depth="3" NCoef="0" IVar="-1" Cut="0.0000000000000000e+00" cType="1" res="-3.1609784811735153e-02" rms="2.4873252213001251e-01" purity="5.9191918373107910e-01" nType="-99"/>
            <Node pos="r" depth="3" NCoef="0" IVar="-1" Cut="0.0000000000000000e+00" cType="1" res="2.2602614760398865e-01" rms="2.2555060684680939e-01" purity="2.9673591256141663e-01" nType="-99"/>
          </Node>
        </Node>
      </Node>
    </BinaryTree>
    <BinaryTree type="DecisionTree" boostWeight="1.0000000000000000e+00" itree="41">
      <Node pos="s" depth="0" NCoef="0" IVar="3" Cut="9.9453611373901367e+00" cType="1" res="1.6510268324054778e-04" rms="1.8864162266254425e-01" purity="5.0000000000000000e-01" nType="0">
